%YAML:1.0
---
opencv_ml_svm:
   format: 3
   svmType: EPS_SVR
   kernel:
      type: LINEAR
   C: 1.0000000000000000e-02
   p: 1.0000000000000001e-01
   term_criteria: { epsilon:1.0000000000000000e-03, iterations:1000 }
   var_count: 225
   sv_total: 1
   support_vectors:
      - [ 3.89024854e-06, 9.59192548e-05, -1.47248953e-04,
          1.84099008e-05, 9.36233118e-06, 1.11182248e-06, 4.20960314e-05,
          -1.35223681e-05, 3.64045336e-05, -4.16249095e-05,
          -2.80082495e-05, 6.52208910e-05, 3.06627371e-05,
          -3.31146912e-05, -1.86903196e-06, -1.59423435e-05,
          -1.33235485e-03, -3.87311593e-04, -1.28655403e-03,
          -6.04589994e-04, 1.56809820e-03, -6.95929746e-04,
          -1.05614332e-03, 8.47642135e-04, 7.77465233e-04,
          -3.21986212e-04, -2.75315280e-04, -1.04868877e-05,
          1.67624348e-05, 2.54396236e-05, 3.68513574e-05, 3.95805226e-04,
          -2.06031674e-03, -1.81118830e-03, -1.21315860e-03,
          -4.29296924e-04, -2.09582178e-03, 8.85457732e-04,
          -1.27848401e-03, -8.80601641e-04, -2.79831496e-04,
          -3.08648043e-04, 1.67908147e-05, -2.70983546e-05,
          5.14065905e-05, 9.98367032e-05, -1.69051241e-03,
          -4.73666179e-04, 7.97605549e-04, 1.54860830e-03,
          -6.55236130e-04, 1.67877541e-03, 4.18007636e-04,
          1.36574218e-03, -3.36818892e-04, 4.96220600e-04,
          -5.96249229e-05, -2.08538313e-05, 7.26194266e-05,
          -9.84551734e-05, -6.98493604e-05, 1.12670742e-03,
          6.49973401e-04, 2.47665006e-03, 2.97029363e-03, 3.76144657e-03,
          -2.88249995e-03, -1.33646606e-03, -3.44899105e-04,
          2.48009863e-04, -9.49525158e-04, 3.78556942e-05,
          5.91243188e-05, -5.90061427e-05, 3.22514679e-05,
          8.27553304e-05, -1.13029790e-03, -8.73791985e-04,
          -3.11898184e-03, 1.08498626e-03, -8.17918684e-04,
          9.94754606e-04, -2.61684950e-03, -1.53680635e-03,
          -3.03642271e-04, -1.02222560e-03, -2.19930807e-05,
          -2.84101206e-05, -2.70208475e-05, -4.40667391e-05,
          -4.59147923e-05, -6.46825763e-04, -3.60107515e-03,
          -9.42671788e-04, 1.79976807e-03, -3.77980265e-04,
          9.40923288e-04, 4.83314041e-04, -4.08631808e-04,
          7.79950642e-04, -8.74733261e-04, -4.74161534e-05,
          2.04018397e-05, 5.92246070e-05, -6.11614742e-05,
          2.93339563e-05, -7.35533948e-04, -5.48252836e-03,
          2.04787427e-03, -1.75273337e-04, -2.37858528e-03,
          -6.80344296e-04, 3.99847806e-04, -2.82141875e-04,
          -7.70373503e-04, 7.71760358e-04, -2.23780225e-05,
          5.52710253e-06, -2.40744594e-05, -3.81413993e-05,
          -6.26282144e-06, 1.21270691e-03, -4.74591786e-03,
          -2.38854671e-03, -9.96857765e-04, 5.39172543e-05,
          8.84966808e-04, -2.50273413e-04, 1.18669658e-03,
          -6.37227786e-04, -1.56698807e-04, 2.90074422e-05,
          5.41586496e-06, 1.36772151e-05, -2.51393467e-05,
          1.34550173e-05, -2.70227576e-03, -1.17237279e-04,
          1.35657506e-03, -1.74400993e-04, 2.18307949e-04,
          -6.77406962e-04, -1.97665370e-03, 1.35406898e-03,
          -1.98435737e-03, -1.59248084e-04, 3.45760454e-05,
          -1.18512071e-05, -1.38514633e-05, 2.85932420e-05,
          -1.30108878e-04, 4.52171080e-04, -1.71785687e-05,
          4.64002776e-04, 9.46168089e-04, -1.15453405e-03,
          -1.17708703e-04, 1.13093446e-03, -1.10684405e-03,
          -1.09352043e-03, -3.48317590e-05, 4.13477683e-05,
          -2.87213661e-05, 8.10320762e-06, -6.12228314e-06,
          -1.31824636e-05, 8.98710423e-05, 2.40451959e-03,
          -1.62078271e-04, -2.94594723e-03, 4.53250163e-04,
          1.86494544e-05, 3.36818281e-04, 2.98588839e-03, 2.08654601e-04,
          6.60429505e-05, 1.68663937e-05, -2.36154210e-06,
          1.22269885e-05, 3.15122452e-05, 2.08917045e-05, 8.00498747e-05,
          5.90754731e-04, 4.26281593e-04, -3.03828483e-03,
          1.10263831e-03, 2.52546999e-03, -3.60899539e-05,
          -3.09089082e-04, 1.91891915e-03, -1.85599856e-05,
          5.22592163e-05, -1.76215144e-05, 1.70083222e-05,
          3.31502952e-06, -4.31733351e-05, 1.43201579e-03,
          1.95391104e-03, -1.16109545e-03, -1.90274767e-03,
          8.47762451e-04, -2.18971880e-04, -4.49721090e-04,
          4.45086975e-03, 1.40945113e-03, 6.63013052e-05, 1.92101670e-05,
          1.33348149e-05, 1.40664624e-05, -1.91351446e-05,
          1.48497347e-04, 7.30298416e-05, 2.67766136e-05,
          -7.23202902e-05, 5.56078885e-05, 1.56170336e-05,
          8.49534335e-05, -9.15044075e-06, 1.14393315e-05,
          1.16344900e-05, -1.37550087e-05, 4.34271751e-05,
          1.78528410e-07, 3.49432207e-06, -2.90669705e-05 ]
   uncompressed_sv_total: 79
   uncompressed_support_vectors:
      - [ 253., 255., 255., 255., 255., 254., 255., 254., 255., 255.,
          255., 255., 255., 255., 255., 255., 0., 0., 4., 0., 0., 253.,
          255., 255., 255., 255., 255., 255., 255., 255., 252., 0., 1.,
          0., 1., 0., 254., 255., 255., 255., 255., 255., 255., 255.,
          255., 255., 0., 0., 0., 0., 4., 254., 255., 255., 255., 255.,
          255., 255., 255., 255., 255., 254., 255., 255., 0., 2., 255.,
          252., 255., 255., 255., 255., 255., 255., 255., 252., 255.,
          254., 255., 0., 0., 255., 255., 255., 255., 255., 255., 255.,
          255., 255., 255., 255., 254., 253., 2., 1., 252., 255., 255.,
          255., 255., 255., 255., 255., 255., 255., 255., 255., 252., 4.,
          0., 254., 255., 255., 255., 255., 255., 255., 255., 255., 254.,
          255., 254., 255., 0., 0., 255., 254., 255., 255., 254., 254.,
          255., 255., 255., 255., 255., 251., 255., 0., 0., 254., 254.,
          255., 255., 255., 252., 255., 254., 255., 255., 254., 254.,
          255., 0., 0., 255., 254., 253., 255., 255., 253., 255., 255.,
          251., 254., 255., 255., 255., 0., 2., 254., 253., 255., 255.,
          251., 255., 254., 254., 255., 255., 0., 0., 0., 2., 0., 0., 3.,
          0., 255., 255., 251., 255., 255., 254., 255., 0., 4., 0., 0.,
          0., 0., 0., 1., 255., 250., 255., 255., 255., 255., 253., 255.,
          253., 253., 255., 255., 252., 255., 255., 255., 255., 255.,
          252., 254., 255. ]
      - [ 255., 253., 255., 255., 255., 253., 255., 254., 255., 255.,
          255., 255., 255., 255., 255., 250., 255., 253., 255., 0., 0.,
          254., 255., 255., 255., 255., 255., 255., 255., 255., 255.,
          255., 2., 0., 0., 0., 255., 254., 255., 255., 255., 255., 255.,
          255., 255., 253., 0., 0., 1., 1., 3., 252., 255., 255., 255.,
          255., 255., 255., 255., 255., 255., 255., 255., 254., 0., 0.,
          255., 255., 255., 255., 255., 255., 255., 255., 255., 254.,
          255., 255., 251., 3., 3., 255., 254., 255., 255., 255., 255.,
          255., 255., 255., 255., 255., 253., 255., 0., 0., 255., 254.,
          255., 255., 255., 255., 255., 255., 255., 255., 252., 255.,
          255., 0., 0., 255., 255., 255., 255., 255., 255., 255., 255.,
          255., 255., 252., 254., 255., 0., 0., 255., 254., 255., 255.,
          254., 254., 255., 255., 255., 252., 255., 255., 255., 0., 0.,
          254., 255., 255., 255., 255., 252., 255., 254., 255., 252.,
          254., 255., 252., 1., 2., 255., 254., 253., 255., 255., 253.,
          255., 255., 251., 255., 254., 255., 254., 0., 0., 0., 254.,
          255., 255., 251., 255., 254., 254., 255., 251., 255., 0., 0.,
          6., 0., 2., 0., 0., 255., 255., 251., 255., 255., 254., 255.,
          254., 4., 1., 0., 2., 0., 0., 1., 255., 250., 255., 255., 255.,
          255., 255., 253., 255., 255., 255., 254., 255., 254., 255.,
          255., 255., 255., 252., 254., 255. ]
      - [ 253., 255., 255., 254., 255., 255., 254., 255., 255., 255.,
          255., 255., 255., 255., 255., 255., 253., 255., 254., 0., 0.,
          254., 253., 255., 255., 255., 255., 255., 255., 255., 255.,
          255., 253., 0., 2., 0., 255., 255., 255., 255., 255., 255.,
          255., 255., 255., 254., 255., 0., 1., 0., 1., 255., 249., 255.,
          255., 255., 255., 255., 255., 255., 254., 0., 0., 0., 0., 1.,
          254., 255., 255., 255., 255., 255., 255., 255., 255., 255., 0.,
          0., 255., 0., 0., 255., 252., 255., 255., 255., 255., 255.,
          255., 255., 255., 255., 251., 255., 0., 0., 255., 254., 255.,
          255., 255., 255., 255., 255., 255., 255., 255., 255., 0., 0.,
          1., 253., 255., 255., 255., 255., 255., 255., 255., 255., 254.,
          255., 254., 1., 0., 0., 255., 255., 255., 255., 255., 255.,
          255., 255., 255., 255., 255., 254., 0., 3., 2., 254., 254.,
          255., 255., 255., 255., 255., 255., 255., 255., 254., 255., 2.,
          0., 0., 255., 255., 255., 255., 255., 255., 255., 255., 255.,
          252., 255., 253., 0., 2., 1., 254., 255., 255., 255., 255.,
          255., 255., 255., 255., 255., 255., 255., 0., 0., 0., 255.,
          251., 255., 255., 255., 255., 255., 255., 255., 255., 250.,
          255., 0., 1., 0., 255., 255., 255., 255., 255., 255., 255.,
          255., 255., 250., 255., 253., 255., 255., 255., 255., 253.,
          255., 255., 255., 255., 255., 255., 255. ]
      - [ 255., 253., 255., 255., 252., 255., 255., 255., 255., 255.,
          255., 255., 255., 255., 255., 255., 253., 255., 254., 1., 0.,
          254., 255., 255., 255., 255., 255., 255., 255., 255., 254.,
          255., 251., 0., 1., 1., 255., 254., 255., 255., 255., 255.,
          255., 255., 255., 255., 252., 4., 0., 0., 0., 255., 255., 255.,
          255., 255., 255., 255., 255., 255., 255., 1., 0., 2., 3., 0.,
          255., 255., 255., 255., 255., 255., 255., 255., 255., 254., 1.,
          0., 255., 0., 2., 253., 254., 255., 255., 255., 255., 255.,
          255., 255., 255., 255., 255., 253., 1., 1., 251., 255., 255.,
          255., 255., 255., 255., 255., 255., 255., 254., 255., 255., 0.,
          0., 255., 252., 255., 255., 255., 255., 255., 255., 255., 255.,
          253., 255., 255., 0., 0., 255., 253., 255., 255., 255., 255.,
          255., 255., 255., 253., 255., 255., 255., 0., 0., 254., 255.,
          255., 255., 255., 255., 255., 255., 255., 255., 253., 252.,
          255., 0., 1., 253., 255., 255., 255., 255., 255., 255., 255.,
          255., 255., 252., 255., 255., 3., 0., 255., 253., 255., 255.,
          255., 255., 255., 255., 255., 255., 255., 255., 0., 0., 1.,
          250., 255., 255., 255., 255., 255., 255., 255., 255., 255.,
          254., 254., 254., 3., 0., 255., 255., 255., 255., 255., 255.,
          255., 255., 255., 252., 255., 252., 254., 255., 252., 255.,
          255., 255., 255., 255., 255., 255., 255., 255. ]
      - [ 255., 255., 255., 254., 254., 255., 255., 254., 255., 255.,
          255., 255., 255., 255., 255., 254., 254., 0., 1., 2., 0., 254.,
          255., 255., 255., 255., 255., 255., 255., 255., 255., 1., 1.,
          0., 0., 3., 255., 253., 255., 255., 255., 255., 255., 255.,
          255., 255., 0., 0., 0., 2., 1., 252., 255., 255., 255., 255.,
          255., 255., 255., 255., 255., 255., 255., 255., 0., 252., 255.,
          255., 255., 255., 255., 255., 255., 255., 255., 253., 251.,
          255., 255., 2., 255., 255., 252., 255., 255., 255., 255., 255.,
          255., 255., 255., 255., 253., 255., 0., 254., 255., 254., 255.,
          255., 255., 255., 255., 255., 255., 255., 255., 255., 254., 0.,
          255., 255., 255., 255., 255., 255., 255., 255., 255., 255.,
          254., 255., 253., 253., 1., 255., 255., 255., 255., 255., 255.,
          255., 255., 255., 255., 254., 254., 255., 255., 0., 254., 253.,
          255., 255., 255., 255., 255., 255., 255., 255., 255., 251.,
          254., 255., 0., 0., 255., 254., 255., 255., 255., 255., 255.,
          255., 255., 254., 3., 2., 0., 2., 0., 1., 0., 255., 255., 255.,
          255., 255., 255., 255., 255., 0., 0., 1., 0., 0., 0., 1., 255.,
          255., 255., 255., 255., 255., 255., 255., 255., 1., 255., 252.,
          255., 0., 254., 255., 255., 255., 255., 255., 255., 255., 254.,
          255., 253., 251., 255., 250., 255., 255., 255., 255., 255.,
          255., 255., 255., 255. ]
      - [ 255., 252., 255., 255., 255., 253., 254., 255., 255., 255.,
          255., 255., 255., 255., 255., 255., 255., 255., 0., 0., 255.,
          255., 252., 255., 255., 255., 255., 255., 255., 255., 255.,
          255., 0., 2., 3., 253., 255., 255., 255., 255., 255., 255.,
          255., 255., 255., 255., 255., 1., 0., 1., 253., 255., 255.,
          255., 255., 255., 255., 255., 255., 255., 252., 1., 0., 2., 0.,
          255., 251., 255., 255., 255., 255., 255., 255., 255., 255.,
          255., 255., 0., 0., 0., 254., 255., 254., 255., 255., 255.,
          255., 255., 255., 255., 253., 254., 255., 1., 0., 255., 254.,
          254., 255., 255., 255., 255., 255., 255., 255., 255., 255.,
          255., 0., 0., 255., 255., 255., 255., 255., 255., 255., 255.,
          255., 255., 255., 254., 255., 0., 0., 255., 252., 255., 255.,
          255., 255., 255., 255., 255., 255., 254., 255., 255., 0., 0.,
          252., 255., 252., 255., 255., 255., 255., 255., 255., 255.,
          255., 255., 249., 0., 4., 0., 255., 255., 255., 255., 255.,
          255., 255., 255., 255., 254., 3., 0., 0., 0., 0., 0., 255.,
          255., 255., 255., 255., 255., 255., 255., 255., 0., 0., 2., 0.,
          0., 0., 255., 255., 255., 255., 255., 255., 255., 255., 254.,
          253., 3., 1., 0., 2., 255., 251., 255., 255., 255., 255., 255.,
          255., 255., 255., 255., 252., 255., 254., 252., 255., 255.,
          255., 255., 255., 255., 255., 255., 255. ]
      - [ 254., 255., 255., 254., 254., 255., 254., 255., 255., 255.,
          255., 255., 255., 255., 255., 255., 255., 254., 0., 0., 255.,
          253., 253., 255., 255., 255., 255., 255., 255., 255., 255.,
          255., 1., 1., 1., 252., 255., 255., 255., 255., 255., 255.,
          255., 255., 255., 253., 0., 2., 0., 0., 255., 254., 253., 255.,
          255., 255., 255., 255., 255., 255., 255., 1., 0., 0., 0., 255.,
          255., 255., 255., 255., 255., 255., 255., 255., 255., 252.,
          254., 1., 0., 1., 252., 255., 254., 255., 255., 255., 255.,
          255., 255., 255., 255., 254., 255., 0., 0., 255., 251., 255.,
          255., 255., 255., 255., 255., 255., 255., 254., 255., 253., 0.,
          0., 254., 255., 255., 255., 255., 255., 255., 255., 255., 255.,
          255., 255., 253., 1., 1., 253., 255., 255., 255., 255., 255.,
          255., 255., 255., 255., 255., 254., 255., 0., 0., 255., 254.,
          255., 255., 255., 255., 255., 255., 255., 255., 255., 253.,
          255., 0., 0., 255., 253., 255., 255., 255., 255., 255., 255.,
          255., 255., 254., 0., 1., 1., 1., 1., 0., 254., 255., 255.,
          255., 255., 255., 255., 255., 253., 1., 1., 0., 0., 1., 1.,
          253., 255., 255., 255., 255., 255., 255., 255., 255., 255., 0.,
          1., 1., 0., 255., 255., 255., 255., 255., 255., 255., 255.,
          255., 255., 255., 255., 255., 255., 255., 255., 255., 255.,
          255., 255., 255., 255., 255., 255. ]
      - [ 255., 255., 255., 255., 255., 255., 255., 254., 255., 255.,
          255., 255., 255., 255., 255., 251., 255., 252., 255., 0., 1.,
          0., 254., 255., 255., 255., 255., 255., 255., 255., 255., 254.,
          255., 0., 0., 0., 1., 255., 255., 255., 255., 255., 255., 255.,
          255., 255., 252., 0., 1., 1., 0., 0., 255., 255., 255., 255.,
          255., 255., 255., 255., 255., 254., 1., 0., 0., 1., 0., 254.,
          255., 255., 255., 255., 255., 255., 255., 255., 255., 252., 1.,
          1., 0., 4., 252., 255., 255., 255., 255., 255., 255., 255.,
          254., 255., 255., 255., 0., 0., 0., 255., 255., 255., 255.,
          255., 255., 255., 255., 255., 255., 254., 253., 5., 0., 0.,
          255., 255., 255., 255., 255., 255., 255., 255., 255., 255.,
          255., 254., 1., 0., 1., 253., 255., 255., 255., 255., 255.,
          255., 255., 255., 255., 252., 255., 0., 0., 255., 255., 255.,
          255., 255., 255., 255., 255., 255., 253., 255., 255., 254., 4.,
          0., 255., 255., 255., 255., 255., 255., 255., 255., 255., 255.,
          251., 255., 1., 0., 1., 0., 255., 255., 255., 255., 255., 255.,
          255., 255., 255., 255., 0., 3., 0., 1., 3., 0., 255., 255.,
          255., 255., 255., 255., 255., 255., 0., 0., 0., 1., 0., 0., 3.,
          255., 255., 255., 255., 255., 255., 255., 254., 255., 255.,
          253., 255., 255., 252., 255., 255., 255., 255., 255., 255.,
          255., 255. ]
      - [ 255., 255., 254., 252., 255., 255., 254., 255., 255., 255.,
          255., 255., 255., 255., 255., 255., 252., 255., 4., 0., 1.,
          255., 255., 255., 255., 255., 255., 255., 255., 255., 254.,
          255., 1., 2., 0., 0., 255., 253., 255., 255., 255., 255., 255.,
          255., 255., 255., 1., 0., 0., 0., 1., 255., 255., 255., 255.,
          255., 255., 255., 255., 255., 253., 0., 1., 2., 0., 0., 255.,
          254., 255., 255., 255., 255., 255., 255., 255., 255., 255.,
          252., 3., 0., 4., 251., 255., 255., 255., 255., 255., 255.,
          255., 255., 253., 253., 255., 0., 0., 0., 255., 254., 255.,
          255., 255., 255., 255., 255., 255., 255., 254., 255., 0., 0.,
          4., 251., 255., 255., 255., 255., 255., 255., 255., 255., 254.,
          255., 254., 0., 1., 2., 254., 255., 255., 255., 255., 255.,
          255., 255., 255., 254., 253., 255., 0., 0., 0., 255., 255.,
          255., 255., 255., 255., 255., 255., 255., 255., 255., 255., 0.,
          0., 0., 255., 255., 255., 255., 255., 255., 255., 255., 255.,
          254., 254., 1., 0., 1., 0., 1., 252., 255., 255., 255., 255.,
          255., 255., 255., 255., 0., 0., 0., 0., 1., 0., 5., 255., 255.,
          255., 255., 255., 255., 255., 255., 1., 1., 0., 1., 0., 0., 0.,
          255., 255., 255., 255., 255., 255., 255., 255., 254., 254.,
          254., 255., 254., 255., 255., 255., 255., 255., 255., 255.,
          255., 255. ]
      - [ 253., 255., 255., 253., 255., 254., 255., 254., 255., 255.,
          255., 255., 255., 255., 255., 255., 255., 251., 255., 0., 4.,
          251., 255., 255., 255., 255., 255., 255., 255., 255., 254.,
          254., 255., 0., 0., 0., 0., 255., 255., 255., 255., 255., 255.,
          255., 255., 255., 255., 0., 0., 2., 0., 253., 255., 255., 255.,
          255., 255., 255., 255., 255., 255., 0., 0., 1., 0., 0., 255.,
          254., 255., 255., 255., 255., 255., 255., 255., 255., 252.,
          255., 1., 0., 1., 253., 255., 255., 255., 255., 255., 255.,
          255., 255., 255., 255., 253., 255., 0., 0., 255., 253., 255.,
          255., 255., 255., 255., 255., 255., 255., 254., 255., 254., 1.,
          1., 251., 255., 255., 255., 255., 255., 255., 255., 255., 255.,
          255., 254., 255., 0., 0., 255., 253., 255., 255., 255., 255.,
          255., 255., 255., 255., 255., 255., 252., 2., 0., 253., 255.,
          255., 255., 255., 255., 255., 255., 255., 253., 255., 255.,
          254., 4., 0., 255., 253., 255., 255., 255., 255., 255., 255.,
          255., 255., 255., 255., 1., 0., 1., 0., 255., 255., 255., 255.,
          255., 255., 255., 255., 255., 0., 0., 1., 1., 1., 0., 0., 255.,
          255., 255., 255., 255., 255., 255., 251., 4., 4., 0., 3., 0.,
          1., 2., 255., 255., 255., 255., 255., 255., 255., 255., 254.,
          254., 255., 253., 254., 254., 254., 255., 255., 255., 255.,
          255., 255., 255. ]
      - [ 255., 255., 253., 255., 253., 255., 253., 255., 255., 255.,
          255., 255., 255., 255., 255., 255., 255., 253., 255., 1., 0.,
          1., 253., 255., 255., 255., 255., 255., 255., 255., 255., 251.,
          3., 0., 0., 3., 0., 255., 255., 255., 255., 255., 255., 255.,
          255., 253., 255., 1., 0., 0., 1., 4., 254., 255., 255., 255.,
          255., 255., 255., 255., 255., 255., 1., 3., 2., 0., 250., 255.,
          255., 255., 255., 255., 255., 255., 255., 254., 253., 255., 0.,
          1., 0., 255., 255., 255., 255., 255., 255., 255., 255., 255.,
          255., 255., 254., 255., 0., 1., 253., 254., 255., 255., 255.,
          255., 255., 255., 255., 254., 255., 255., 254., 0., 0., 255.,
          255., 255., 255., 255., 255., 255., 255., 255., 255., 254.,
          255., 255., 0., 0., 255., 255., 255., 255., 255., 255., 255.,
          255., 255., 253., 255., 253., 253., 5., 0., 255., 252., 255.,
          255., 255., 255., 255., 255., 255., 254., 255., 255., 255., 0.,
          0., 252., 255., 255., 255., 255., 255., 255., 255., 255., 255.,
          255., 0., 0., 1., 1., 1., 254., 255., 255., 255., 255., 255.,
          255., 255., 255., 0., 0., 0., 0., 1., 0., 0., 255., 255., 255.,
          255., 255., 255., 255., 255., 254., 0., 4., 1., 3., 0., 2.,
          255., 255., 255., 255., 255., 255., 255., 255., 255., 255.,
          254., 252., 254., 254., 254., 255., 255., 255., 255., 255.,
          255., 255. ]
      - [ 253., 255., 255., 254., 255., 255., 254., 255., 255., 255.,
          255., 255., 255., 255., 255., 255., 253., 255., 254., 0., 0.,
          254., 253., 255., 255., 255., 255., 255., 255., 255., 255.,
          255., 253., 0., 2., 0., 255., 255., 255., 255., 255., 255.,
          255., 255., 255., 254., 255., 0., 1., 0., 1., 255., 249., 255.,
          255., 255., 255., 255., 255., 255., 254., 0., 0., 0., 0., 1.,
          254., 255., 255., 255., 255., 255., 255., 255., 255., 255., 0.,
          0., 255., 0., 0., 255., 252., 255., 255., 255., 255., 255.,
          255., 255., 255., 255., 251., 255., 0., 0., 255., 254., 255.,
          255., 255., 255., 255., 255., 255., 255., 255., 255., 0., 0.,
          1., 253., 255., 255., 255., 255., 255., 255., 255., 255., 255.,
          254., 255., 1., 0., 2., 255., 252., 255., 255., 255., 255.,
          255., 255., 255., 253., 255., 254., 2., 0., 0., 255., 254.,
          255., 255., 255., 255., 255., 255., 255., 255., 255., 253., 0.,
          1., 1., 255., 255., 255., 255., 255., 255., 255., 255., 255.,
          255., 253., 255., 0., 1., 0., 253., 252., 255., 255., 255.,
          255., 255., 255., 255., 253., 255., 255., 3., 0., 0., 255.,
          255., 255., 255., 255., 255., 255., 255., 255., 255., 252.,
          253., 255., 0., 1., 254., 255., 255., 255., 255., 255., 255.,
          255., 255., 252., 255., 252., 253., 255., 255., 254., 255.,
          255., 255., 255., 255., 255., 255., 255. ]
      - [ 255., 254., 253., 255., 255., 253., 255., 255., 254., 255.,
          255., 253., 255., 254., 255., 253., 255., 255., 0., 0., 4.,
          254., 255., 254., 253., 254., 255., 255., 254., 255., 255., 0.,
          2., 0., 3., 0., 0., 0., 255., 255., 255., 253., 251., 255.,
          253., 255., 0., 0., 0., 1., 0., 5., 1., 0., 253., 253., 255.,
          255., 254., 254., 255., 0., 1., 1., 253., 255., 0., 0., 0.,
          255., 255., 255., 251., 255., 255., 253., 255., 254., 255.,
          254., 254., 2., 2., 0., 255., 254., 251., 255., 255., 255.,
          255., 254., 254., 255., 255., 255., 0., 0., 0., 255., 253.,
          255., 255., 250., 255., 254., 255., 254., 254., 255., 0., 0.,
          3., 255., 254., 254., 255., 253., 255., 255., 254., 255., 254.,
          253., 255., 1., 0., 2., 255., 255., 254., 254., 255., 255.,
          255., 255., 255., 255., 255., 0., 0., 2., 255., 255., 255.,
          255., 252., 255., 254., 255., 255., 254., 251., 0., 5., 0.,
          254., 255., 253., 255., 255., 253., 255., 255., 251., 255.,
          255., 0., 0., 0., 255., 255., 253., 255., 255., 251., 255.,
          254., 254., 255., 254., 0., 4., 1., 0., 4., 0., 2., 0., 255.,
          255., 251., 255., 255., 254., 255., 0., 0., 0., 0., 2., 2., 0.,
          1., 255., 250., 255., 255., 255., 255., 253., 255., 255., 254.,
          255., 252., 255., 253., 255., 255., 255., 255., 252., 254.,
          255. ]
      - [ 255., 253., 255., 255., 253., 254., 255., 255., 255., 255.,
          255., 253., 255., 255., 255., 255., 254., 0., 0., 3., 1., 0.,
          0., 0., 255., 253., 255., 255., 255., 255., 252., 3., 0., 1.,
          0., 0., 0., 1., 0., 1., 255., 255., 254., 255., 253., 255.,
          254., 0., 0., 255., 253., 255., 0., 0., 0., 255., 254., 255.,
          252., 253., 252., 253., 255., 255., 251., 255., 254., 255., 3.,
          0., 255., 253., 253., 255., 254., 255., 255., 251., 255., 254.,
          255., 253., 253., 0., 0., 255., 255., 253., 254., 255., 255.,
          252., 255., 255., 255., 255., 255., 1., 1., 1., 251., 255.,
          255., 252., 255., 255., 253., 255., 255., 253., 255., 0., 0.,
          0., 255., 255., 253., 255., 255., 253., 253., 255., 254., 255.,
          255., 0., 2., 0., 254., 254., 255., 255., 254., 255., 255.,
          255., 254., 254., 255., 0., 3., 0., 255., 255., 254., 255.,
          253., 255., 255., 255., 251., 255., 255., 0., 0., 3., 254.,
          254., 251., 253., 255., 253., 255., 255., 253., 255., 255., 0.,
          0., 3., 0., 255., 254., 254., 255., 252., 255., 255., 255.,
          254., 255., 252., 0., 1., 0., 1., 0., 2., 0., 0., 0., 255.,
          255., 253., 255., 255., 255., 1., 1., 0., 0., 3., 0., 0., 1.,
          0., 255., 249., 255., 255., 254., 254., 255., 253., 255., 255.,
          255., 254., 255., 255., 254., 254., 255., 254., 253. ]
      - [ 254., 255., 255., 253., 255., 255., 253., 255., 255., 253.,
          255., 253., 255., 254., 255., 254., 255., 253., 255., 0., 0.,
          1., 255., 255., 255., 251., 254., 255., 253., 255., 255., 255.,
          0., 0., 1., 2., 0., 0., 2., 251., 255., 255., 250., 255., 255.,
          254., 0., 3., 0., 2., 1., 0., 2., 0., 255., 255., 255., 255.,
          254., 255., 254., 3., 0., 1., 253., 255., 1., 0., 0., 255.,
          250., 255., 255., 255., 250., 255., 252., 0., 255., 253., 255.,
          0., 2., 0., 255., 255., 254., 255., 255., 255., 255., 255.,
          255., 255., 255., 0., 4., 0., 0., 255., 255., 254., 253., 254.,
          254., 255., 255., 253., 0., 4., 0., 0., 2., 255., 253., 255.,
          254., 254., 255., 253., 255., 255., 1., 0., 0., 0., 0., 255.,
          255., 255., 254., 255., 254., 255., 255., 254., 255., 0., 3.,
          4., 254., 254., 255., 254., 255., 255., 255., 255., 253., 255.,
          254., 1., 0., 0., 0., 255., 255., 255., 255., 254., 255., 251.,
          255., 255., 254., 255., 0., 2., 3., 1., 3., 0., 2., 0., 255.,
          255., 255., 255., 254., 254., 254., 0., 0., 0., 0., 0., 5., 0.,
          1., 1., 255., 251., 255., 254., 255., 255., 255., 255., 253.,
          255., 255., 253., 0., 2., 253., 253., 255., 254., 255., 252.,
          254., 254., 255., 255., 254., 251., 255., 255., 252., 255.,
          255., 249., 255., 255., 254. ]
      - [ 255., 253., 255., 253., 253., 255., 255., 255., 255., 255.,
          254., 255., 254., 255., 255., 255., 255., 252., 3., 0., 1., 1.,
          0., 1., 255., 255., 255., 255., 254., 253., 255., 0., 3., 0.,
          0., 2., 0., 0., 0., 0., 255., 253., 255., 255., 254., 255., 0.,
          0., 1., 0., 255., 1., 0., 2., 0., 255., 255., 255., 255., 255.,
          255., 2., 0., 2., 255., 251., 252., 2., 2., 0., 255., 255.,
          255., 255., 255., 253., 253., 255., 255., 252., 255., 1., 0.,
          0., 0., 255., 253., 255., 255., 254., 255., 255., 254., 251.,
          255., 1., 0., 2., 1., 255., 255., 255., 255., 254., 253., 254.,
          255., 255., 3., 0., 0., 4., 0., 255., 255., 254., 255., 254.,
          255., 255., 255., 255., 0., 0., 4., 0., 253., 255., 252., 255.,
          253., 255., 255., 254., 254., 254., 0., 0., 3., 0., 253., 255.,
          255., 255., 249., 255., 251., 255., 255., 254., 255., 1., 0.,
          0., 255., 255., 255., 253., 253., 255., 255., 255., 255., 255.,
          251., 254., 0., 3., 0., 1., 0., 0., 0., 0., 1., 253., 253.,
          255., 255., 254., 255., 0., 3., 0., 0., 2., 1., 3., 2., 0.,
          255., 255., 255., 254., 255., 255., 1., 0., 3., 0., 1., 0., 0.,
          0., 0., 253., 254., 255., 255., 254., 255., 253., 254., 254.,
          254., 255., 255., 255., 255., 255., 255., 255., 253., 255.,
          254. ]
      - [ 255., 253., 255., 255., 253., 255., 254., 255., 255., 254.,
          253., 255., 255., 254., 255., 254., 255., 0., 0., 4., 0., 3.,
          0., 255., 255., 255., 254., 253., 255., 255., 255., 0., 0., 1.,
          0., 0., 0., 2., 0., 255., 252., 254., 255., 254., 254., 252.,
          0., 0., 2., 0., 0., 0., 0., 0., 255., 253., 254., 254., 255.,
          252., 255., 2., 0., 0., 255., 255., 1., 0., 1., 253., 255.,
          255., 255., 253., 255., 252., 1., 0., 255., 254., 255., 0., 0.,
          0., 255., 253., 255., 253., 255., 251., 255., 251., 255., 255.,
          255., 255., 0., 0., 0., 255., 255., 255., 255., 254., 255.,
          254., 255., 254., 255., 255., 1., 0., 2., 0., 255., 255., 253.,
          255., 255., 253., 255., 255., 255., 254., 0., 0., 3., 0., 255.,
          255., 255., 253., 254., 255., 255., 254., 254., 253., 2., 0.,
          0., 253., 255., 255., 255., 255., 253., 255., 255., 250., 255.,
          255., 0., 2., 0., 253., 255., 253., 254., 254., 255., 255.,
          252., 255., 255., 255., 248., 0., 3., 2., 1., 0., 0., 1., 255.,
          250., 255., 255., 255., 255., 253., 6., 0., 2., 0., 1., 0., 0.,
          0., 255., 255., 253., 254., 254., 254., 255., 0., 2., 0., 2.,
          2., 0., 0., 1., 251., 255., 255., 255., 255., 255., 255., 255.,
          254., 254., 255., 255., 252., 255., 254., 255., 253., 255.,
          255., 253., 253. ]
      - [ 255., 254., 255., 255., 254., 255., 255., 255., 255., 255.,
          255., 253., 255., 255., 255., 255., 252., 0., 1., 0., 0., 0.,
          2., 0., 255., 253., 255., 255., 255., 255., 249., 4., 0., 0.,
          3., 0., 2., 1., 0., 1., 255., 255., 254., 255., 253., 255., 4.,
          0., 4., 0., 255., 254., 0., 0., 0., 255., 254., 255., 252.,
          253., 255., 0., 0., 0., 255., 254., 255., 0., 3., 0., 255.,
          253., 253., 255., 254., 252., 255., 255., 254., 255., 255.,
          254., 0., 0., 0., 255., 255., 253., 254., 255., 255., 254.,
          255., 254., 253., 255., 0., 1., 1., 1., 251., 255., 255., 252.,
          255., 255., 255., 255., 255., 254., 0., 2., 0., 0., 255., 255.,
          253., 255., 255., 253., 255., 254., 255., 253., 0., 0., 0., 2.,
          255., 253., 255., 252., 255., 254., 253., 255., 255., 253.,
          255., 0., 3., 0., 253., 254., 252., 255., 255., 253., 255.,
          255., 253., 251., 255., 0., 4., 0., 254., 255., 255., 255.,
          255., 253., 255., 255., 254., 255., 255., 0., 0., 0., 255.,
          255., 254., 255., 2., 252., 255., 255., 253., 255., 252., 0.,
          0., 4., 1., 0., 4., 0., 0., 0., 255., 255., 252., 254., 255.,
          255., 0., 0., 0., 0., 0., 0., 0., 2., 0., 255., 252., 254.,
          255., 255., 253., 255., 255., 255., 255., 255., 251., 255.,
          255., 255., 254., 253., 255., 253., 254. ]
      - [ 255., 255., 252., 255., 253., 255., 255., 255., 255., 253.,
          255., 253., 255., 254., 255., 253., 253., 1., 0., 0., 3., 0.,
          255., 255., 255., 251., 254., 255., 253., 255., 255., 0., 1.,
          2., 2., 0., 0., 0., 2., 251., 255., 255., 250., 255., 255.,
          251., 4., 1., 0., 0., 0., 5., 0., 0., 255., 255., 255., 255.,
          254., 255., 255., 0., 0., 4., 253., 255., 0., 0., 0., 255.,
          250., 255., 255., 255., 250., 255., 0., 0., 255., 255., 251.,
          4., 0., 0., 255., 255., 254., 255., 255., 255., 254., 255.,
          254., 255., 254., 255., 0., 0., 0., 255., 255., 254., 253.,
          254., 254., 254., 255., 254., 254., 255., 1., 0., 2., 255.,
          253., 255., 254., 254., 255., 253., 252., 255., 252., 255., 1.,
          1., 2., 0., 255., 255., 255., 253., 254., 255., 255., 255.,
          255., 254., 1., 0., 0., 253., 255., 255., 255., 255., 253.,
          255., 255., 250., 253., 255., 0., 1., 1., 255., 254., 254.,
          254., 254., 255., 255., 252., 255., 255., 255., 0., 1., 0., 0.,
          252., 0., 1., 1., 255., 250., 255., 255., 255., 255., 252., 1.,
          2., 0., 0., 1., 0., 0., 0., 255., 255., 253., 254., 254., 254.,
          253., 2., 0., 1., 0., 1., 0., 0., 1., 251., 255., 255., 255.,
          255., 255., 255., 253., 255., 255., 254., 255., 251., 255.,
          254., 255., 253., 255., 255., 253., 253. ]
      - [ 253., 254., 255., 255., 253., 255., 255., 253., 255., 255.,
          255., 253., 254., 255., 255., 255., 253., 252., 2., 0., 253.,
          255., 255., 255., 255., 255., 253., 255., 255., 250., 250.,
          255., 0., 0., 2., 0., 3., 0., 254., 254., 255., 255., 252.,
          255., 255., 255., 253., 1., 2., 0., 3., 0., 2., 1., 255., 250.,
          255., 255., 255., 255., 252., 254., 255., 253., 255., 254.,
          255., 0., 0., 255., 255., 253., 254., 254., 254., 255., 255.,
          254., 255., 255., 255., 255., 0., 1., 251., 255., 255., 255.,
          255., 255., 253., 255., 255., 0., 0., 1., 0., 0., 254., 255.,
          253., 255., 255., 253., 253., 255., 255., 255., 0., 3., 0., 2.,
          0., 255., 252., 255., 253., 255., 255., 255., 254., 255., 253.,
          255., 254., 255., 1., 0., 255., 253., 255., 254., 255., 255.,
          254., 255., 255., 255., 254., 255., 253., 255., 0., 0., 255.,
          255., 252., 255., 255., 255., 253., 254., 254., 255., 255.,
          254., 255., 2., 2., 253., 255., 255., 252., 255., 254., 255.,
          0., 2., 1., 0., 4., 0., 0., 0., 254., 255., 253., 255., 255.,
          253., 252., 1., 1., 0., 1., 0., 0., 3., 255., 252., 255., 255.,
          255., 255., 255., 255., 255., 255., 3., 0., 255., 255., 255.,
          253., 255., 252., 254., 254., 253., 254., 255., 251., 255.,
          255., 254., 255., 250., 255., 255., 254., 255., 253., 255.,
          255., 255. ]
      - [ 255., 254., 255., 255., 253., 255., 255., 255., 255., 255.,
          255., 253., 254., 255., 255., 255., 255., 0., 0., 0., 0., 0.,
          254., 255., 255., 255., 253., 255., 255., 250., 255., 0., 0.,
          2., 1., 0., 0., 0., 254., 254., 255., 255., 252., 255., 255.,
          252., 2., 0., 2., 0., 4., 0., 1., 1., 255., 250., 255., 255.,
          255., 255., 255., 254., 255., 254., 255., 255., 0., 0., 0.,
          255., 255., 253., 254., 254., 254., 253., 255., 251., 255.,
          254., 253., 4., 0., 1., 251., 255., 255., 255., 255., 255.,
          255., 253., 254., 0., 3., 2., 0., 0., 254., 255., 253., 255.,
          255., 253., 253., 254., 255., 255., 0., 0., 0., 0., 1., 255.,
          252., 255., 253., 255., 255., 255., 255., 255., 255., 255., 1.,
          0., 1., 1., 2., 252., 255., 255., 254., 255., 255., 255., 252.,
          255., 252., 255., 255., 253., 0., 0., 255., 255., 254., 255.,
          255., 255., 255., 255., 255., 252., 255., 255., 0., 4., 0.,
          255., 255., 254., 255., 254., 254., 253., 1., 0., 0., 0., 3.,
          0., 0., 0., 254., 254., 255., 255., 255., 253., 255., 0., 0.,
          3., 0., 0., 5., 2., 255., 255., 255., 254., 255., 253., 255.,
          254., 255., 0., 2., 1., 0., 0., 255., 254., 254., 255., 255.,
          254., 255., 255., 255., 251., 255., 252., 255., 255., 255.,
          255., 255., 254., 254., 255., 255., 255., 254. ]
      - [ 253., 255., 254., 255., 255., 251., 255., 255., 255., 254.,
          253., 255., 255., 254., 255., 255., 254., 255., 0., 0., 4., 0.,
          0., 255., 255., 255., 254., 253., 255., 255., 253., 252., 0.,
          2., 0., 1., 0., 0., 0., 255., 252., 254., 255., 254., 254.,
          255., 255., 0., 1., 0., 255., 0., 1., 0., 255., 253., 254.,
          254., 255., 252., 253., 255., 255., 252., 253., 255., 255., 0.,
          1., 253., 255., 255., 255., 253., 255., 254., 255., 252., 255.,
          255., 254., 0., 3., 0., 255., 253., 255., 253., 255., 251.,
          255., 253., 254., 255., 0., 0., 4., 0., 0., 255., 255., 255.,
          255., 254., 255., 255., 255., 255., 255., 1., 0., 1., 0., 0.,
          255., 255., 253., 255., 255., 253., 255., 255., 252., 255.,
          254., 255., 1., 0., 0., 255., 255., 253., 255., 255., 255.,
          252., 255., 0., 253., 255., 255., 255., 0., 0., 0., 254., 253.,
          255., 255., 253., 255., 3., 2., 1., 0., 253., 0., 2., 0., 0.,
          255., 255., 255., 255., 255., 255., 0., 1., 1., 0., 4., 0., 1.,
          0., 255., 253., 254., 255., 253., 254., 255., 253., 0., 0., 1.,
          0., 3., 0., 255., 252., 255., 253., 255., 255., 255., 251.,
          255., 255., 255., 0., 3., 0., 255., 253., 255., 253., 253.,
          255., 255., 254., 255., 252., 254., 254., 255., 254., 253.,
          255., 253., 255., 255., 255., 255., 254., 255. ]
      - [ 255., 255., 255., 253., 255., 252., 254., 255., 255., 255.,
          255., 255., 254., 255., 255., 255., 253., 252., 1., 1., 4., 0.,
          254., 254., 255., 255., 253., 255., 255., 255., 255., 0., 2.,
          0., 0., 0., 1., 2., 255., 251., 255., 255., 254., 255., 250.,
          252., 3., 0., 1., 0., 1., 0., 0., 255., 255., 255., 255., 254.,
          254., 255., 255., 255., 0., 0., 255., 255., 0., 1., 2., 251.,
          255., 254., 255., 255., 255., 254., 255., 255., 255., 255.,
          254., 0., 1., 254., 255., 254., 255., 254., 252., 252., 255.,
          254., 255., 0., 2., 0., 2., 0., 255., 252., 255., 255., 255.,
          255., 255., 255., 251., 255., 1., 0., 0., 0., 0., 254., 255.,
          255., 252., 255., 255., 255., 255., 255., 255., 0., 0., 0., 0.,
          2., 255., 254., 253., 255., 253., 255., 255., 255., 254., 255.,
          253., 255., 255., 2., 0., 0., 255., 255., 255., 255., 253.,
          252., 255., 0., 0., 255., 253., 252., 0., 2., 0., 255., 255.,
          253., 255., 254., 255., 253., 6., 0., 0., 255., 0., 0., 0.,
          255., 255., 255., 255., 251., 255., 255., 254., 1., 0., 2., 0.,
          1., 0., 1., 255., 254., 251., 255., 255., 254., 255., 255.,
          255., 0., 1., 3., 0., 0., 253., 255., 255., 255., 255., 253.,
          255., 251., 255., 253., 255., 255., 252., 255., 255., 255.,
          255., 254., 255., 253., 255., 255., 253. ]
      - [ 255., 252., 255., 255., 254., 255., 255., 254., 255., 255.,
          255., 255., 255., 255., 255., 255., 255., 254., 254., 0., 0.,
          255., 254., 255., 255., 255., 255., 255., 255., 255., 254.,
          253., 4., 0., 1., 1., 0., 1., 255., 255., 255., 255., 255.,
          255., 255., 254., 255., 0., 3., 0., 0., 1., 2., 255., 255.,
          255., 255., 255., 255., 255., 255., 254., 250., 254., 255.,
          252., 3., 0., 255., 255., 255., 255., 255., 255., 255., 252.,
          255., 255., 255., 253., 255., 0., 1., 255., 255., 255., 255.,
          255., 255., 255., 255., 253., 252., 2., 0., 1., 0., 4., 255.,
          255., 255., 255., 255., 255., 255., 254., 255., 255., 0., 1.,
          2., 0., 0., 255., 255., 255., 255., 255., 255., 255., 255.,
          255., 255., 255., 251., 255., 0., 0., 255., 254., 253., 255.,
          253., 255., 255., 255., 253., 252., 255., 255., 255., 255., 1.,
          0., 255., 255., 255., 255., 253., 252., 255., 1., 4., 3., 253.,
          254., 2., 0., 0., 255., 255., 253., 255., 254., 255., 254., 0.,
          0., 0., 0., 2., 0., 0., 255., 255., 255., 255., 251., 255.,
          255., 255., 255., 1., 4., 0., 0., 0., 0., 255., 254., 251.,
          255., 255., 254., 255., 254., 255., 253., 0., 0., 2., 255.,
          255., 255., 255., 255., 255., 253., 255., 251., 255., 255.,
          255., 252., 255., 255., 251., 254., 255., 254., 255., 253.,
          255., 255., 253. ]
      - [ 255., 255., 255., 252., 255., 255., 255., 254., 255., 255.,
          255., 253., 254., 255., 255., 254., 254., 0., 4., 0., 0., 0.,
          1., 255., 255., 255., 253., 255., 255., 250., 254., 0., 3., 0.,
          2., 1., 0., 0., 254., 254., 255., 255., 252., 255., 255., 255.,
          0., 0., 1., 253., 255., 1., 0., 1., 255., 250., 255., 255.,
          255., 255., 254., 1., 0., 255., 254., 255., 0., 0., 0., 255.,
          255., 253., 254., 254., 254., 255., 255., 251., 253., 255.,
          252., 2., 2., 1., 251., 255., 255., 255., 255., 255., 252.,
          255., 255., 254., 1., 1., 0., 0., 254., 255., 253., 255., 255.,
          253., 253., 255., 254., 254., 255., 0., 2., 0., 1., 255., 252.,
          255., 253., 255., 255., 255., 255., 250., 255., 255., 255.,
          254., 3., 0., 0., 255., 255., 254., 254., 255., 255., 254.,
          255., 252., 254., 255., 253., 0., 1., 0., 255., 254., 253.,
          255., 253., 255., 255., 0., 0., 255., 254., 255., 0., 2., 0.,
          254., 255., 255., 251., 255., 250., 255., 0., 3., 0., 255.,
          255., 0., 0., 3., 251., 255., 254., 253., 255., 255., 254., 0.,
          0., 4., 0., 2., 1., 0., 0., 255., 255., 255., 255., 253., 255.,
          255., 255., 2., 0., 0., 1., 0., 0., 255., 253., 254., 253.,
          255., 254., 253., 253., 253., 255., 255., 253., 255., 255.,
          255., 255., 255., 255., 255., 255., 255., 253. ]
      - [ 255., 254., 255., 255., 255., 255., 255., 253., 255., 255.,
          255., 253., 254., 255., 255., 253., 255., 0., 2., 0., 0., 0.,
          255., 255., 255., 255., 253., 255., 255., 250., 255., 0., 2.,
          0., 1., 1., 0., 1., 254., 254., 255., 255., 252., 255., 255.,
          255., 0., 0., 1., 1., 0., 2., 0., 1., 255., 250., 255., 255.,
          255., 255., 255., 0., 2., 1., 255., 251., 2., 1., 0., 255.,
          255., 253., 254., 254., 254., 254., 0., 2., 252., 253., 255.,
          0., 0., 1., 251., 255., 255., 255., 255., 255., 254., 255.,
          254., 255., 1., 0., 0., 255., 254., 255., 253., 255., 255.,
          253., 253., 255., 255., 255., 254., 1., 1., 0., 254., 255.,
          252., 255., 253., 255., 255., 255., 254., 255., 254., 254., 1.,
          1., 0., 1., 0., 255., 255., 254., 254., 255., 255., 252., 255.,
          255., 254., 255., 250., 2., 0., 0., 255., 254., 253., 255.,
          253., 255., 255., 0., 0., 0., 252., 255., 2., 0., 0., 254.,
          255., 255., 251., 255., 250., 253., 1., 0., 4., 1., 0., 0., 2.,
          3., 251., 255., 254., 253., 255., 255., 251., 5., 0., 0., 0.,
          0., 0., 2., 0., 255., 255., 255., 255., 253., 255., 255., 253.,
          3., 0., 2., 1., 0., 1., 255., 253., 254., 253., 255., 254.,
          253., 253., 254., 254., 254., 251., 255., 254., 254., 255.,
          255., 255., 255., 255., 255., 253. ]
      - [ 255., 255., 253., 255., 254., 255., 253., 255., 255., 255.,
          255., 255., 255., 255., 255., 255., 255., 255., 253., 254.,
          255., 0., 254., 255., 255., 255., 255., 255., 255., 255., 251.,
          255., 255., 255., 255., 0., 3., 0., 255., 255., 255., 255.,
          255., 255., 255., 255., 254., 253., 255., 0., 0., 2., 0., 255.,
          255., 255., 255., 255., 255., 255., 253., 253., 255., 255., 2.,
          0., 1., 0., 255., 255., 255., 255., 255., 255., 255., 255.,
          255., 255., 0., 0., 1., 0., 3., 255., 255., 255., 255., 255.,
          255., 255., 255., 254., 253., 2., 0., 255., 2., 0., 255., 255.,
          255., 255., 255., 255., 255., 255., 254., 1., 0., 255., 254.,
          0., 0., 255., 255., 255., 255., 255., 255., 255., 255., 0., 2.,
          0., 255., 255., 1., 0., 0., 255., 254., 255., 255., 254., 255.,
          254., 2., 0., 0., 1., 2., 0., 1., 2., 0., 255., 254., 254.,
          255., 250., 255., 0., 0., 4., 0., 0., 0., 0., 1., 0., 252.,
          255., 255., 255., 255., 255., 255., 254., 254., 255., 255., 0.,
          2., 253., 255., 255., 255., 255., 254., 253., 255., 254., 255.,
          255., 254., 253., 2., 0., 254., 255., 252., 251., 254., 255.,
          255., 254., 255., 252., 255., 253., 255., 0., 2., 255., 254.,
          255., 254., 255., 255., 255., 255., 253., 255., 251., 255.,
          255., 252., 255., 255., 254., 252., 255., 252., 254., 254. ]
      - [ 255., 255., 254., 255., 255., 254., 255., 254., 255., 254.,
          255., 254., 255., 255., 252., 254., 254., 255., 255., 254.,
          254., 0., 1., 1., 255., 255., 252., 255., 255., 255., 255.,
          255., 253., 252., 255., 2., 0., 0., 0., 254., 252., 255., 252.,
          254., 255., 254., 252., 255., 254., 255., 0., 0., 3., 0., 255.,
          255., 254., 255., 255., 255., 255., 251., 255., 255., 0., 2.,
          4., 0., 0., 252., 253., 255., 255., 255., 254., 251., 255.,
          251., 1., 0., 254., 0., 0., 2., 254., 255., 252., 254., 255.,
          251., 255., 254., 5., 0., 0., 255., 255., 1., 0., 255., 255.,
          254., 255., 254., 255., 255., 253., 0., 2., 254., 255., 253.,
          0., 0., 255., 255., 254., 255., 255., 253., 255., 0., 0., 1.,
          255., 255., 255., 0., 2., 253., 255., 255., 255., 255., 254.,
          253., 4., 0., 0., 1., 0., 0., 3., 0., 1., 255., 252., 255.,
          252., 255., 255., 0., 0., 2., 0., 0., 2., 0., 0., 0., 254.,
          255., 255., 255., 252., 255., 252., 255., 255., 255., 254., 0.,
          0., 0., 255., 255., 254., 252., 254., 255., 253., 255., 255.,
          252., 254., 255., 0., 3., 0., 255., 255., 255., 255., 254.,
          254., 255., 255., 255., 253., 255., 254., 0., 0., 0., 255.,
          251., 251., 255., 253., 255., 255., 252., 255., 254., 252.,
          255., 253., 255., 255., 253., 255., 255., 253., 255., 255. ]
      - [ 255., 254., 255., 254., 255., 253., 255., 255., 255., 254.,
          253., 255., 255., 254., 255., 255., 251., 255., 255., 255.,
          255., 2., 0., 255., 255., 255., 254., 253., 255., 255., 254.,
          255., 252., 254., 255., 0., 1., 0., 0., 255., 252., 254., 255.,
          254., 254., 255., 255., 255., 254., 252., 1., 0., 1., 0., 255.,
          253., 254., 254., 255., 252., 254., 252., 255., 255., 2., 0.,
          3., 0., 1., 253., 255., 255., 255., 253., 255., 255., 255.,
          255., 1., 0., 0., 2., 0., 0., 255., 253., 255., 253., 255.,
          251., 255., 255., 253., 3., 4., 253., 255., 2., 0., 255., 255.,
          255., 255., 254., 255., 254., 255., 2., 0., 0., 255., 254., 1.,
          0., 255., 255., 253., 255., 255., 253., 255., 0., 0., 1., 0.,
          0., 1., 1., 0., 0., 0., 255., 255., 255., 255., 254., 1., 3.,
          0., 0., 1., 2., 0., 0., 3., 0., 254., 252., 254., 252., 255.,
          254., 252., 253., 255., 252., 1., 3., 1., 0., 255., 255., 255.,
          254., 255., 252., 255., 254., 254., 255., 255., 0., 0., 0.,
          255., 254., 254., 253., 255., 253., 254., 253., 254., 255.,
          255., 253., 2., 0., 0., 255., 255., 254., 253., 255., 253.,
          255., 255., 254., 255., 254., 255., 0., 0., 1., 255., 253.,
          253., 255., 255., 255., 253., 255., 253., 255., 255., 254.,
          252., 255., 255., 252., 255., 255., 252., 255., 254. ]
      - [ 255., 255., 254., 255., 255., 250., 255., 254., 254., 255.,
          253., 252., 255., 255., 255., 255., 255., 255., 251., 254.,
          255., 0., 3., 0., 251., 254., 255., 252., 254., 255., 255.,
          255., 254., 255., 255., 255., 3., 0., 4., 255., 255., 252.,
          255., 255., 255., 255., 253., 255., 255., 254., 0., 0., 0., 0.,
          252., 254., 255., 255., 255., 255., 253., 255., 254., 255., 0.,
          3., 2., 1., 1., 255., 255., 254., 255., 254., 255., 255., 254.,
          255., 255., 1., 0., 2., 0., 0., 254., 255., 253., 254., 255.,
          255., 254., 255., 255., 0., 0., 2., 254., 3., 0., 255., 254.,
          254., 255., 251., 255., 255., 255., 1., 0., 1., 0., 254., 0.,
          0., 0., 255., 255., 253., 255., 253., 253., 0., 2., 0., 2., 2.,
          0., 0., 0., 0., 0., 255., 255., 255., 255., 255., 0., 0., 0.,
          0., 0., 0., 0., 0., 3., 0., 254., 252., 254., 252., 253., 255.,
          255., 255., 255., 255., 2., 0., 1., 0., 255., 255., 255., 254.,
          255., 255., 255., 253., 253., 254., 255., 254., 0., 0., 255.,
          254., 254., 253., 255., 253., 255., 255., 253., 255., 255.,
          255., 0., 1., 0., 255., 255., 254., 253., 255., 253., 254.,
          255., 255., 255., 254., 252., 255., 0., 1., 255., 253., 253.,
          255., 255., 255., 255., 255., 254., 252., 255., 255., 248.,
          255., 255., 252., 255., 255., 252., 255., 254. ]
      - [ 255., 254., 255., 254., 255., 253., 255., 255., 254., 255.,
          253., 252., 255., 255., 255., 255., 251., 255., 255., 255.,
          255., 2., 0., 0., 251., 254., 255., 252., 254., 255., 254.,
          255., 252., 254., 255., 0., 1., 0., 4., 255., 255., 252., 255.,
          255., 255., 255., 255., 255., 254., 252., 1., 0., 1., 0., 252.,
          254., 255., 255., 255., 255., 254., 252., 255., 255., 2., 0.,
          3., 0., 1., 255., 255., 254., 255., 254., 255., 255., 255.,
          255., 1., 0., 0., 2., 0., 0., 254., 255., 253., 254., 255.,
          255., 255., 255., 253., 3., 4., 253., 255., 2., 0., 255., 254.,
          254., 255., 251., 255., 254., 255., 2., 0., 0., 255., 254., 1.,
          0., 0., 255., 255., 253., 255., 253., 255., 0., 0., 1., 0., 0.,
          0., 1., 0., 0., 0., 255., 255., 255., 255., 254., 0., 1., 2.,
          0., 3., 0., 0., 0., 3., 0., 254., 252., 254., 252., 254., 255.,
          254., 255., 253., 254., 5., 0., 1., 0., 255., 255., 255., 254.,
          255., 255., 255., 253., 254., 255., 255., 0., 0., 0., 255.,
          254., 254., 253., 255., 253., 255., 253., 255., 254., 255.,
          254., 0., 1., 0., 255., 255., 254., 253., 255., 253., 252.,
          255., 255., 254., 253., 255., 254., 0., 1., 255., 253., 253.,
          255., 255., 255., 254., 253., 255., 254., 255., 254., 253.,
          255., 255., 252., 255., 255., 252., 255., 254. ]
      - [ 253., 255., 255., 255., 253., 254., 255., 254., 255., 255.,
          255., 255., 255., 255., 255., 255., 255., 251., 255., 255., 0.,
          1., 0., 255., 255., 255., 255., 255., 255., 255., 254., 255.,
          255., 251., 255., 1., 0., 4., 255., 255., 255., 255., 255.,
          255., 255., 255., 253., 255., 255., 0., 1., 6., 0., 255., 255.,
          255., 255., 255., 255., 255., 255., 255., 254., 2., 0., 0., 0.,
          0., 255., 255., 255., 255., 255., 255., 255., 254., 253., 255.,
          0., 255., 255., 2., 0., 255., 255., 255., 255., 255., 255.,
          255., 255., 255., 0., 2., 252., 255., 0., 2., 255., 255., 255.,
          255., 255., 255., 255., 254., 0., 0., 3., 253., 255., 0., 0.,
          255., 255., 255., 255., 255., 255., 255., 255., 0., 0., 1., 0.,
          0., 1., 1., 0., 255., 255., 253., 255., 255., 255., 254., 1.,
          3., 0., 0., 1., 2., 0., 0., 255., 250., 255., 255., 255., 251.,
          255., 254., 252., 253., 255., 252., 1., 3., 255., 255., 255.,
          255., 251., 255., 255., 252., 255., 254., 254., 255., 255., 0.,
          0., 255., 250., 255., 255., 255., 254., 255., 254., 253., 254.,
          255., 255., 253., 2., 0., 254., 255., 253., 253., 255., 255.,
          250., 255., 255., 254., 255., 254., 255., 0., 0., 255., 254.,
          255., 253., 255., 253., 255., 253., 255., 253., 255., 255.,
          254., 252., 255., 255., 255., 254., 254., 255., 255., 255. ]
      - [ 255., 252., 255., 255., 255., 255., 253., 255., 255., 254.,
          253., 255., 253., 255., 255., 254., 255., 255., 253., 255.,
          254., 3., 0., 0., 255., 255., 255., 255., 253., 252., 253.,
          255., 255., 255., 255., 0., 0., 2., 0., 255., 255., 253., 255.,
          254., 255., 255., 254., 255., 255., 255., 0., 0., 0., 255.,
          255., 255., 255., 251., 255., 255., 255., 255., 251., 254., 0.,
          1., 1., 0., 255., 254., 251., 255., 255., 254., 255., 253.,
          254., 255., 3., 2., 0., 0., 3., 255., 255., 255., 255., 253.,
          255., 251., 255., 253., 255., 0., 0., 253., 4., 0., 255., 254.,
          255., 253., 255., 255., 253., 255., 255., 0., 1., 255., 255.,
          0., 0., 255., 255., 254., 254., 255., 254., 255., 253., 255.,
          1., 0., 254., 255., 0., 1., 255., 255., 254., 255., 254., 255.,
          252., 255., 1., 0., 0., 0., 255., 0., 0., 0., 0., 255., 255.,
          254., 251., 255., 252., 1., 2., 2., 0., 0., 6., 0., 0., 1.,
          253., 254., 255., 255., 254., 255., 0., 0., 1., 255., 255., 1.,
          0., 0., 1., 255., 253., 255., 254., 254., 254., 255., 255.,
          254., 255., 255., 0., 3., 255., 252., 255., 253., 253., 255.,
          251., 255., 254., 253., 255., 250., 255., 0., 0., 254., 254.,
          255., 255., 255., 255., 255., 255., 255., 254., 253., 255.,
          253., 255., 254., 255., 255., 254., 255., 254., 255., 254. ]
      - [ 255., 252., 255., 255., 255., 255., 253., 255., 255., 254.,
          253., 255., 253., 255., 255., 254., 255., 255., 253., 255.,
          254., 3., 0., 0., 255., 255., 255., 255., 253., 252., 253.,
          255., 255., 255., 255., 0., 0., 2., 0., 255., 255., 253., 255.,
          254., 255., 255., 254., 255., 255., 255., 0., 0., 0., 255.,
          255., 255., 255., 251., 255., 255., 255., 255., 251., 254., 0.,
          1., 1., 0., 255., 254., 251., 255., 255., 254., 255., 253.,
          254., 255., 3., 2., 0., 0., 3., 255., 255., 255., 255., 253.,
          255., 251., 255., 253., 255., 0., 0., 253., 4., 0., 255., 254.,
          255., 253., 255., 255., 253., 255., 255., 0., 1., 255., 255.,
          0., 0., 255., 255., 254., 254., 255., 254., 255., 255., 0., 1.,
          0., 253., 255., 0., 0., 255., 255., 254., 255., 254., 255.,
          252., 255., 1., 0., 1., 255., 255., 0., 2., 0., 0., 255., 255.,
          254., 251., 255., 255., 0., 0., 0., 0., 0., 1., 0., 0., 1.,
          253., 254., 255., 255., 254., 255., 1., 2., 1., 0., 0., 0., 0.,
          0., 1., 255., 253., 255., 254., 254., 253., 255., 254., 252.,
          255., 252., 0., 3., 255., 252., 255., 253., 253., 255., 251.,
          255., 255., 253., 255., 255., 255., 0., 0., 254., 254., 255.,
          255., 255., 255., 255., 253., 255., 255., 254., 255., 253.,
          255., 255., 255., 255., 254., 255., 254., 255., 254. ]
      - [ 255., 255., 255., 254., 255., 252., 255., 255., 255., 255.,
          255., 255., 255., 255., 255., 255., 254., 255., 255., 255.,
          255., 0., 255., 255., 255., 255., 255., 255., 255., 255., 255.,
          255., 0., 0., 0., 0., 2., 0., 255., 255., 255., 255., 255.,
          255., 255., 255., 255., 2., 1., 0., 2., 0., 0., 255., 255.,
          255., 255., 255., 255., 255., 255., 254., 1., 4., 252., 254.,
          254., 255., 255., 255., 255., 255., 255., 255., 255., 254.,
          255., 2., 0., 2., 0., 1., 253., 255., 255., 255., 255., 255.,
          255., 255., 255., 254., 0., 2., 1., 0., 1., 1., 255., 255.,
          255., 255., 255., 255., 255., 255., 253., 4., 253., 255., 2.,
          0., 0., 255., 255., 255., 255., 255., 255., 255., 255., 253.,
          255., 255., 255., 254., 255., 0., 255., 254., 253., 255., 253.,
          255., 255., 252., 255., 255., 254., 255., 255., 254., 0., 0.,
          255., 255., 255., 255., 253., 252., 254., 254., 254., 254.,
          255., 255., 0., 2., 0., 255., 255., 253., 255., 254., 255.,
          255., 1., 2., 0., 3., 0., 2., 0., 255., 255., 255., 255., 251.,
          255., 255., 255., 0., 0., 1., 1., 5., 2., 0., 255., 254., 251.,
          255., 255., 254., 255., 254., 255., 255., 0., 253., 253., 255.,
          255., 255., 255., 255., 255., 253., 255., 251., 255., 255.,
          255., 255., 255., 255., 254., 255., 255., 254., 255., 253.,
          255., 255., 253. ]
      - [ 254., 255., 255., 251., 255., 255., 254., 255., 255., 255.,
          255., 255., 253., 255., 255., 254., 253., 1., 3., 1., 0., 2.,
          0., 0., 254., 253., 255., 255., 255., 252., 255., 253., 0., 0.,
          0., 0., 3., 0., 0., 255., 255., 255., 254., 254., 255., 252.,
          255., 0., 1., 0., 255., 254., 255., 255., 252., 254., 253.,
          255., 253., 254., 255., 255., 1., 0., 254., 254., 253., 255.,
          255., 255., 252., 255., 254., 255., 255., 255., 252., 0., 2.,
          0., 1., 255., 255., 254., 253., 255., 253., 255., 255., 253.,
          253., 255., 0., 0., 2., 0., 3., 0., 0., 255., 254., 252., 255.,
          255., 251., 254., 255., 0., 1., 0., 0., 0., 0., 0., 255., 250.,
          255., 255., 254., 255., 254., 255., 255., 254., 254., 255.,
          252., 0., 2., 252., 255., 255., 254., 255., 255., 255., 255.,
          254., 255., 253., 254., 255., 0., 0., 255., 255., 254., 255.,
          255., 255., 253., 255., 3., 254., 255., 253., 0., 0., 0., 255.,
          255., 254., 255., 254., 254., 255., 1., 0., 0., 3., 0., 0., 3.,
          0., 254., 254., 255., 255., 255., 253., 252., 1., 0., 0., 1.,
          1., 0., 0., 255., 255., 255., 254., 255., 253., 255., 255.,
          255., 254., 3., 0., 0., 255., 255., 254., 254., 255., 255.,
          254., 255., 255., 255., 255., 255., 252., 255., 255., 252.,
          254., 255., 254., 254., 255., 255., 255., 254. ]
      - [ 253., 255., 253., 254., 255., 255., 254., 255., 255., 252.,
          255., 255., 255., 254., 255., 255., 255., 1., 2., 0., 0., 3.,
          0., 255., 253., 255., 255., 252., 255., 250., 251., 255., 0.,
          0., 4., 0., 1., 0., 253., 254., 254., 255., 255., 254., 255.,
          255., 255., 0., 2., 255., 253., 255., 255., 255., 255., 255.,
          253., 255., 255., 255., 252., 252., 3., 0., 252., 255., 252.,
          255., 254., 254., 253., 255., 254., 255., 255., 255., 255., 0.,
          0., 3., 255., 254., 255., 255., 255., 255., 251., 255., 255.,
          253., 251., 255., 0., 2., 0., 2., 0., 0., 254., 254., 255.,
          255., 255., 254., 252., 255., 255., 0., 2., 0., 0., 0., 1., 0.,
          254., 255., 255., 253., 255., 255., 255., 254., 255., 254.,
          255., 255., 0., 1., 0., 255., 255., 255., 255., 255., 253.,
          255., 255., 255., 254., 255., 255., 0., 0., 1., 254., 252.,
          254., 255., 253., 255., 255., 253., 254., 255., 255., 252., 2.,
          0., 0., 255., 255., 255., 254., 255., 255., 255., 0., 3., 0.,
          0., 3., 0., 2., 255., 253., 255., 254., 255., 255., 254., 253.,
          3., 0., 1., 1., 1., 0., 0., 252., 255., 255., 254., 255., 254.,
          251., 255., 255., 0., 2., 0., 0., 255., 255., 255., 255., 255.,
          251., 255., 254., 255., 255., 251., 255., 254., 255., 255.,
          255., 253., 255., 254., 255., 255., 251., 255., 251. ]
      - [ 255., 255., 252., 255., 254., 254., 255., 253., 255., 254.,
          255., 255., 251., 255., 255., 253., 255., 3., 0., 255., 0., 1.,
          1., 0., 255., 255., 251., 255., 255., 252., 255., 0., 1., 0.,
          1., 0., 0., 0., 0., 255., 255., 254., 255., 255., 253., 253.,
          1., 0., 3., 0., 0., 4., 1., 0., 255., 253., 255., 251., 253.,
          255., 255., 0., 3., 0., 255., 254., 253., 254., 254., 251.,
          255., 254., 255., 255., 253., 255., 0., 0., 0., 2., 3., 0., 1.,
          2., 255., 252., 255., 255., 255., 254., 255., 1., 3., 0., 0.,
          0., 1., 2., 0., 255., 255., 255., 253., 253., 255., 255., 0.,
          1., 0., 255., 254., 255., 0., 3., 0., 254., 255., 253., 255.,
          252., 254., 1., 255., 255., 255., 255., 254., 0., 0., 1., 255.,
          254., 254., 255., 255., 255., 254., 255., 255., 252., 255.,
          255., 2., 0., 0., 255., 254., 255., 253., 255., 255., 2., 0.,
          254., 255., 252., 0., 0., 3., 0., 254., 255., 253., 254., 254.,
          254., 1., 1., 0., 0., 253., 4., 1., 0., 255., 255., 252., 255.,
          255., 255., 255., 1., 0., 0., 1., 1., 0., 1., 255., 253., 255.,
          254., 255., 253., 255., 255., 254., 1., 0., 2., 0., 2., 254.,
          255., 255., 253., 255., 255., 254., 254., 255., 248., 255.,
          255., 254., 255., 255., 255., 250., 255., 255., 255., 253.,
          251., 255. ]
      - [ 255., 255., 253., 255., 254., 253., 255., 255., 255., 255.,
          255., 255., 253., 255., 255., 255., 252., 2., 0., 3., 0., 0.,
          2., 0., 254., 253., 255., 255., 255., 252., 253., 255., 1., 0.,
          0., 1., 0., 0., 0., 255., 255., 255., 254., 254., 255., 255.,
          255., 0., 4., 0., 0., 4., 0., 255., 252., 254., 253., 255.,
          253., 254., 254., 255., 0., 0., 0., 0., 0., 255., 255., 255.,
          252., 255., 254., 255., 255., 255., 255., 0., 0., 0., 1., 1.,
          0., 254., 253., 255., 253., 255., 255., 253., 255., 0., 0., 1.,
          255., 255., 255., 0., 0., 255., 254., 252., 255., 255., 251.,
          255., 253., 0., 255., 255., 254., 254., 1., 0., 255., 250.,
          255., 255., 254., 255., 253., 255., 255., 255., 252., 255.,
          253., 1., 0., 255., 255., 255., 255., 255., 253., 255., 255.,
          254., 252., 255., 255., 255., 0., 1., 254., 252., 254., 255.,
          253., 255., 255., 1., 1., 5., 253., 253., 3., 0., 0., 255.,
          255., 255., 254., 255., 255., 255., 0., 0., 0., 1., 2., 0., 4.,
          255., 253., 255., 254., 255., 255., 254., 253., 255., 2., 0.,
          0., 0., 0., 253., 252., 255., 255., 254., 255., 254., 251.,
          255., 255., 253., 0., 3., 0., 255., 255., 255., 255., 255.,
          251., 255., 254., 255., 255., 251., 255., 255., 254., 254.,
          255., 254., 255., 254., 255., 255., 251., 255., 251. ]
      - [ 254., 255., 252., 255., 255., 255., 253., 254., 255., 253.,
          253., 255., 253., 255., 255., 255., 252., 3., 1., 0., 0., 3.,
          0., 0., 255., 255., 254., 254., 254., 255., 253., 0., 1., 0.,
          0., 3., 1., 0., 4., 0., 255., 255., 255., 255., 255., 255.,
          255., 0., 1., 0., 0., 3., 1., 0., 255., 255., 255., 255., 253.,
          255., 254., 254., 0., 0., 1., 255., 252., 254., 255., 254.,
          254., 255., 255., 251., 255., 255., 1., 0., 4., 0., 0., 0., 2.,
          0., 255., 253., 254., 255., 255., 253., 255., 1., 0., 0., 0.,
          0., 0., 0., 0., 0., 255., 252., 255., 255., 255., 254., 0., 0.,
          1., 255., 255., 252., 1., 1., 0., 255., 255., 255., 255., 255.,
          255., 253., 255., 255., 253., 255., 254., 0., 1., 0., 255.,
          255., 253., 255., 253., 253., 255., 253., 255., 255., 252.,
          255., 0., 0., 0., 255., 255., 254., 254., 255., 255., 0., 0.,
          2., 254., 255., 0., 1., 0., 2., 255., 253., 254., 255., 253.,
          255., 0., 6., 0., 0., 0., 1., 0., 0., 255., 252., 255., 255.,
          253., 255., 254., 255., 0., 0., 0., 2., 0., 2., 0., 252., 255.,
          255., 255., 254., 255., 255., 255., 255., 1., 0., 3., 0., 255.,
          255., 255., 255., 252., 255., 255., 255., 253., 255., 255.,
          253., 255., 255., 253., 255., 253., 255., 252., 255., 255.,
          255., 252. ]
      - [ 254., 255., 254., 253., 255., 255., 255., 254., 255., 255.,
          255., 254., 255., 255., 254., 255., 0., 0., 3., 0., 1., 0., 2.,
          0., 255., 255., 254., 253., 255., 253., 255., 2., 1., 3., 0.,
          0., 2., 0., 0., 254., 253., 255., 255., 255., 255., 254., 0.,
          0., 0., 255., 254., 0., 0., 1., 255., 255., 254., 254., 254.,
          255., 255., 2., 3., 0., 253., 255., 255., 255., 253., 255.,
          253., 255., 255., 255., 254., 255., 3., 0., 0., 0., 1., 254.,
          255., 255., 255., 255., 255., 252., 255., 255., 255., 0., 2.,
          2., 1., 0., 0., 1., 255., 255., 253., 255., 255., 255., 255.,
          255., 1., 0., 0., 1., 0., 0., 0., 0., 255., 254., 255., 254.,
          254., 255., 255., 2., 0., 255., 253., 255., 0., 0., 0., 255.,
          255., 254., 254., 255., 255., 255., 254., 254., 255., 255.,
          253., 255., 0., 0., 255., 254., 253., 255., 253., 255., 253.,
          4., 0., 255., 253., 255., 254., 1., 0., 254., 255., 255., 251.,
          255., 250., 255., 0., 1., 4., 253., 255., 1., 0., 3., 251.,
          255., 254., 253., 255., 255., 254., 1., 0., 0., 2., 0., 1., 0.,
          0., 255., 255., 255., 255., 253., 255., 255., 253., 2., 0., 0.,
          4., 0., 4., 255., 253., 254., 253., 255., 254., 253., 255.,
          254., 255., 255., 253., 254., 255., 255., 255., 255., 255.,
          255., 255., 255., 253. ]
      - [ 255., 254., 255., 254., 253., 255., 254., 255., 255., 255.,
          255., 253., 255., 255., 255., 254., 255., 0., 2., 1., 0., 2.,
          0., 0., 2., 254., 255., 255., 255., 255., 255., 0., 0., 0., 0.,
          1., 0., 2., 4., 0., 255., 255., 254., 253., 255., 254., 1., 0.,
          0., 253., 255., 253., 254., 0., 253., 255., 255., 252., 255.,
          251., 255., 1., 1., 0., 254., 254., 255., 255., 255., 255.,
          255., 255., 255., 255., 255., 254., 2., 0., 2., 4., 2., 0.,
          255., 253., 255., 255., 254., 254., 255., 255., 255., 0., 0.,
          0., 0., 0., 4., 0., 0., 255., 253., 255., 255., 255., 255.,
          255., 0., 0., 0., 3., 0., 1., 0., 0., 0., 255., 253., 255.,
          255., 254., 253., 1., 1., 254., 255., 255., 254., 1., 0., 0.,
          255., 254., 255., 255., 253., 255., 253., 254., 254., 255.,
          254., 255., 0., 0., 0., 252., 255., 253., 255., 255., 253., 1.,
          0., 255., 255., 255., 254., 3., 1., 2., 255., 254., 255., 255.,
          254., 255., 0., 3., 1., 254., 252., 255., 0., 0., 0., 255.,
          255., 255., 251., 255., 255., 0., 0., 2., 0., 1., 0., 2., 1.,
          0., 253., 254., 254., 255., 255., 255., 255., 4., 0., 0., 3.,
          0., 0., 0., 255., 255., 255., 255., 254., 255., 254., 255.,
          253., 255., 255., 252., 255., 255., 255., 253., 255., 252.,
          253., 255., 255. ]
      - [ 255., 254., 255., 255., 255., 255., 255., 255., 255., 253.,
          255., 255., 253., 255., 255., 254., 254., 0., 0., 0., 0., 0.,
          1., 2., 0., 254., 254., 255., 254., 255., 255., 255., 0., 0.,
          2., 2., 4., 0., 2., 0., 255., 255., 252., 255., 253., 253., 0.,
          1., 1., 255., 255., 252., 253., 0., 4., 253., 254., 255., 255.,
          255., 255., 0., 1., 0., 254., 254., 255., 255., 255., 253.,
          255., 255., 255., 255., 253., 252., 4., 0., 0., 2., 0., 0., 0.,
          253., 255., 255., 254., 252., 252., 255., 255., 0., 0., 0., 0.,
          2., 0., 0., 0., 255., 253., 255., 255., 255., 255., 255., 0.,
          1., 0., 2., 0., 0., 3., 1., 0., 255., 255., 255., 255., 251.,
          255., 0., 0., 255., 254., 255., 252., 1., 0., 0., 255., 254.,
          255., 255., 253., 251., 255., 255., 255., 254., 255., 254.,
          255., 0., 0., 252., 255., 253., 255., 255., 254., 1., 2., 251.,
          255., 255., 255., 0., 1., 2., 255., 254., 255., 255., 254.,
          255., 1., 0., 4., 255., 253., 254., 0., 0., 0., 255., 255.,
          255., 251., 255., 252., 0., 0., 0., 0., 1., 0., 2., 1., 0.,
          253., 254., 254., 255., 255., 255., 254., 3., 1., 1., 0., 0.,
          0., 0., 255., 255., 255., 255., 254., 255., 254., 253., 254.,
          255., 251., 254., 254., 255., 255., 253., 255., 252., 253.,
          255., 255. ]
      - [ 255., 255., 255., 254., 255., 253., 255., 254., 255., 255.,
          255., 254., 255., 255., 254., 253., 3., 0., 0., 3., 2., 0., 0.,
          0., 255., 255., 254., 253., 255., 253., 255., 0., 0., 6., 0.,
          0., 2., 2., 0., 254., 253., 255., 255., 255., 255., 255., 0.,
          0., 0., 0., 0., 1., 0., 1., 255., 255., 254., 254., 254., 255.,
          255., 1., 0., 255., 253., 255., 255., 255., 253., 255., 253.,
          255., 255., 255., 254., 255., 0., 0., 254., 255., 255., 254.,
          254., 255., 255., 255., 255., 252., 255., 255., 255., 0., 1.,
          0., 0., 0., 0., 1., 255., 255., 253., 255., 255., 255., 255.,
          255., 1., 0., 2., 0., 0., 2., 0., 0., 255., 254., 255., 254.,
          254., 255., 255., 0., 0., 254., 255., 255., 0., 2., 2., 252.,
          255., 255., 254., 255., 255., 252., 255., 255., 254., 255.,
          255., 255., 0., 0., 255., 255., 254., 255., 255., 255., 255.,
          0., 0., 255., 255., 254., 255., 0., 0., 255., 255., 254., 255.,
          254., 254., 255., 2., 1., 1., 2., 0., 0., 0., 0., 254., 254.,
          255., 255., 255., 253., 253., 2., 0., 0., 0., 0., 1., 2., 255.,
          255., 255., 254., 255., 253., 255., 255., 253., 0., 0., 1., 0.,
          2., 254., 254., 254., 255., 255., 254., 255., 255., 254., 255.,
          255., 255., 254., 255., 255., 253., 255., 254., 254., 255.,
          255., 255., 254. ]
      - [ 255., 255., 254., 255., 255., 255., 255., 254., 254., 255.,
          254., 255., 254., 253., 255., 254., 254., 254., 2., 1., 0., 0.,
          2., 255., 255., 254., 254., 255., 255., 255., 255., 255., 0.,
          2., 2., 0., 2., 0., 255., 254., 255., 253., 255., 253., 255.,
          255., 255., 0., 0., 0., 255., 254., 255., 254., 255., 253.,
          253., 255., 255., 250., 253., 1., 1., 2., 255., 254., 255.,
          255., 255., 250., 255., 255., 255., 254., 255., 255., 0., 0.,
          255., 252., 255., 254., 255., 255., 255., 255., 255., 251.,
          255., 255., 255., 0., 3., 0., 2., 0., 2., 0., 0., 255., 250.,
          255., 255., 255., 251., 254., 1., 0., 2., 254., 253., 3., 0.,
          0., 255., 255., 253., 255., 255., 255., 254., 1., 0., 254.,
          255., 255., 0., 0., 0., 255., 255., 255., 255., 255., 253.,
          255., 0., 1., 254., 254., 253., 0., 3., 1., 254., 252., 254.,
          255., 253., 255., 255., 0., 0., 0., 255., 255., 0., 0., 0.,
          255., 255., 255., 254., 255., 255., 253., 255., 1., 0., 0., 0.,
          0., 1., 255., 253., 255., 254., 255., 255., 254., 255., 250.,
          1., 1., 0., 0., 1., 1., 252., 255., 255., 254., 255., 254.,
          251., 252., 255., 252., 0., 5., 0., 255., 253., 255., 255.,
          255., 251., 255., 254., 255., 255., 254., 255., 255., 255.,
          255., 255., 255., 255., 254., 255., 255., 251., 255., 251. ]
      - [ 255., 255., 255., 254., 255., 253., 254., 255., 255., 254.,
          255., 253., 255., 255., 253., 252., 255., 254., 0., 2., 1., 0.,
          0., 254., 255., 254., 255., 255., 252., 253., 255., 250., 255.,
          2., 0., 1., 3., 0., 1., 254., 255., 251., 255., 254., 255.,
          254., 255., 0., 0., 0., 252., 1., 1., 253., 255., 255., 255.,
          254., 255., 253., 255., 3., 0., 3., 255., 255., 252., 255.,
          255., 255., 254., 253., 255., 253., 252., 253., 0., 0., 1.,
          255., 252., 255., 253., 255., 255., 254., 255., 255., 255.,
          255., 255., 1., 3., 0., 0., 3., 0., 0., 2., 253., 255., 254.,
          251., 255., 255., 255., 0., 1., 0., 3., 0., 0., 1., 0., 253.,
          255., 255., 255., 254., 255., 255., 1., 0., 2., 253., 255.,
          255., 0., 2., 252., 255., 255., 254., 255., 255., 255., 0., 5.,
          0., 255., 251., 254., 4., 0., 255., 255., 254., 255., 255.,
          255., 255., 2., 0., 0., 255., 255., 1., 0., 0., 255., 255.,
          254., 255., 254., 254., 253., 255., 0., 0., 2., 0., 2., 1., 0.,
          254., 254., 255., 255., 255., 253., 255., 255., 2., 0., 0., 1.,
          1., 0., 255., 255., 255., 254., 255., 253., 255., 255., 255.,
          253., 0., 3., 0., 0., 255., 254., 254., 255., 255., 254., 255.,
          255., 254., 252., 255., 255., 255., 255., 254., 255., 255.,
          254., 254., 255., 255., 255., 254. ]
      - [ 255., 252., 255., 254., 255., 255., 253., 255., 255., 254.,
          255., 255., 255., 254., 255., 255., 255., 255., 255., 1., 0.,
          1., 0., 253., 255., 254., 255., 255., 255., 255., 254., 255.,
          252., 2., 0., 0., 3., 0., 0., 255., 253., 254., 255., 254.,
          255., 255., 255., 5., 0., 0., 255., 0., 2., 0., 253., 254.,
          255., 253., 255., 254., 255., 254., 0., 4., 0., 255., 255.,
          255., 255., 255., 255., 254., 255., 253., 255., 255., 0., 0.,
          1., 252., 255., 255., 252., 255., 250., 255., 255., 254., 255.,
          255., 254., 1., 2., 0., 1., 0., 0., 2., 1., 254., 255., 255.,
          255., 254., 255., 255., 1., 0., 0., 3., 0., 0., 1., 0., 255.,
          254., 255., 255., 255., 255., 255., 2., 0., 0., 255., 255.,
          254., 0., 1., 0., 255., 255., 253., 255., 253., 254., 3., 0.,
          4., 255., 254., 255., 1., 0., 0., 255., 255., 254., 254., 255.,
          255., 253., 2., 0., 253., 255., 255., 0., 0., 2., 255., 253.,
          254., 255., 253., 255., 255., 2., 1., 0., 255., 0., 3., 0.,
          255., 252., 255., 255., 253., 255., 254., 255., 253., 1., 1.,
          2., 1., 0., 0., 252., 255., 255., 255., 254., 255., 255., 255.,
          255., 253., 1., 0., 0., 255., 255., 255., 255., 252., 255.,
          255., 255., 255., 252., 253., 255., 253., 255., 255., 255.,
          253., 255., 252., 255., 255., 255., 252. ]
      - [ 255., 251., 255., 255., 252., 255., 255., 255., 252., 255.,
          254., 252., 255., 255., 255., 252., 255., 255., 255., 0., 0.,
          1., 0., 255., 253., 255., 255., 254., 252., 254., 255., 255.,
          254., 0., 3., 0., 0., 1., 0., 254., 254., 254., 255., 255.,
          252., 254., 254., 2., 0., 0., 1., 3., 0., 2., 254., 255., 255.,
          254., 254., 255., 255., 255., 0., 1., 255., 255., 253., 255.,
          255., 254., 255., 253., 252., 255., 255., 254., 0., 0., 0.,
          253., 251., 255., 255., 255., 254., 255., 254., 255., 253.,
          254., 253., 2., 0., 2., 1., 0., 2., 0., 253., 255., 255., 254.,
          254., 255., 252., 255., 0., 0., 0., 0., 0., 0., 1., 2., 253.,
          255., 254., 255., 252., 255., 254., 0., 2., 0., 254., 255.,
          255., 1., 0., 255., 255., 254., 254., 255., 255., 255., 1., 1.,
          3., 254., 255., 254., 0., 0., 255., 254., 253., 255., 253.,
          255., 252., 2., 0., 2., 255., 255., 254., 0., 0., 254., 255.,
          255., 251., 255., 250., 255., 254., 2., 0., 0., 255., 1., 2.,
          3., 251., 255., 254., 253., 255., 255., 254., 253., 4., 3., 0.,
          0., 1., 0., 0., 255., 255., 255., 255., 253., 255., 255., 254.,
          252., 0., 4., 0., 1., 1., 255., 253., 254., 253., 255., 254.,
          253., 250., 255., 255., 255., 253., 255., 254., 255., 255.,
          255., 255., 255., 255., 255., 253. ]
      - [ 252., 255., 252., 255., 255., 255., 255., 254., 255., 255.,
          255., 255., 255., 255., 255., 255., 253., 255., 255., 253., 0.,
          251., 255., 255., 255., 255., 255., 255., 255., 255., 255.,
          254., 0., 1., 0., 3., 2., 0., 255., 255., 255., 255., 255.,
          255., 255., 255., 254., 1., 2., 0., 0., 0., 0., 255., 255.,
          255., 255., 255., 255., 255., 255., 0., 1., 0., 255., 255.,
          255., 255., 255., 255., 255., 255., 255., 255., 255., 255., 1.,
          0., 255., 0., 1., 252., 255., 255., 255., 255., 255., 255.,
          255., 255., 255., 2., 0., 0., 2., 1., 0., 255., 255., 255.,
          255., 255., 255., 255., 255., 254., 0., 4., 255., 254., 0., 1.,
          0., 255., 255., 255., 255., 255., 255., 255., 255., 0., 0.,
          255., 255., 252., 0., 0., 255., 255., 255., 255., 255., 255.,
          255., 252., 5., 0., 255., 253., 255., 0., 1., 255., 255., 255.,
          255., 255., 255., 255., 255., 0., 1., 254., 255., 255., 3., 0.,
          255., 255., 255., 255., 255., 255., 255., 255., 0., 0., 2., 0.,
          0., 0., 3., 255., 255., 255., 255., 255., 255., 255., 253.,
          255., 3., 0., 2., 0., 0., 255., 255., 255., 255., 255., 255.,
          255., 255., 255., 249., 255., 254., 0., 255., 255., 253., 255.,
          255., 255., 255., 255., 255., 255., 255., 255., 255., 255.,
          255., 252., 255., 253., 255., 255., 255., 255., 255., 255.,
          255. ]
      - [ 255., 255., 253., 255., 254., 253., 255., 255., 255., 255.,
          254., 255., 254., 255., 255., 251., 255., 254., 254., 1., 0.,
          1., 253., 255., 255., 255., 255., 255., 254., 255., 255., 255.,
          252., 1., 0., 2., 0., 255., 255., 255., 254., 254., 255., 255.,
          254., 255., 254., 255., 0., 0., 1., 255., 255., 254., 255.,
          255., 255., 252., 255., 255., 254., 255., 0., 4., 0., 253.,
          255., 255., 255., 255., 254., 255., 255., 254., 252., 255.,
          255., 2., 0., 2., 255., 251., 255., 255., 252., 254., 255.,
          249., 255., 255., 255., 0., 0., 2., 0., 0., 3., 0., 0., 255.,
          255., 255., 255., 255., 254., 254., 2., 1., 0., 0., 2., 0., 2.,
          0., 0., 253., 255., 255., 252., 255., 255., 0., 2., 0., 255.,
          255., 254., 0., 0., 1., 255., 254., 254., 255., 255., 254., 1.,
          0., 3., 252., 254., 255., 2., 0., 0., 255., 254., 255., 253.,
          255., 255., 0., 4., 0., 255., 255., 0., 0., 3., 0., 254., 255.,
          253., 254., 254., 253., 255., 0., 2., 0., 0., 0., 1., 0., 255.,
          255., 252., 255., 255., 255., 255., 255., 0., 2., 2., 0., 1.,
          0., 255., 253., 255., 254., 255., 253., 255., 254., 254., 255.,
          255., 0., 1., 0., 255., 255., 255., 253., 255., 255., 254.,
          254., 255., 254., 255., 255., 255., 255., 254., 255., 250.,
          255., 255., 255., 253., 251., 255. ]
      - [ 255., 255., 255., 255., 251., 255., 255., 255., 255., 252.,
          255., 255., 255., 254., 255., 254., 255., 253., 254., 0., 4.,
          0., 254., 255., 253., 255., 255., 252., 255., 250., 255., 255.,
          255., 1., 3., 0., 4., 253., 253., 254., 254., 255., 255., 254.,
          255., 254., 255., 0., 0., 0., 0., 250., 255., 255., 255., 255.,
          253., 255., 255., 255., 255., 254., 1., 2., 0., 255., 255.,
          252., 254., 254., 253., 255., 254., 255., 255., 255., 0., 1.,
          0., 0., 255., 255., 255., 255., 255., 255., 251., 255., 255.,
          253., 254., 1., 0., 1., 2., 1., 0., 0., 254., 254., 255., 255.,
          255., 254., 252., 255., 0., 1., 0., 0., 0., 0., 1., 0., 254.,
          255., 255., 253., 255., 255., 255., 0., 0., 255., 255., 255.,
          1., 0., 0., 255., 255., 255., 255., 255., 253., 255., 1., 1.,
          255., 253., 253., 1., 1., 1., 254., 252., 254., 255., 253.,
          255., 254., 0., 0., 255., 255., 254., 3., 0., 0., 255., 255.,
          255., 254., 255., 255., 253., 5., 0., 0., 0., 0., 0., 0., 255.,
          253., 255., 254., 255., 255., 254., 255., 0., 2., 0., 0., 3.,
          0., 2., 252., 255., 255., 254., 255., 254., 251., 255., 254.,
          254., 4., 0., 0., 4., 254., 255., 255., 255., 251., 255., 254.,
          255., 253., 255., 255., 252., 255., 252., 255., 254., 255.,
          254., 255., 255., 251., 255., 251. ]
      - [ 255., 255., 255., 254., 255., 254., 253., 255., 252., 255.,
          254., 252., 255., 255., 255., 255., 255., 0., 0., 2., 0., 4.,
          0., 255., 253., 255., 255., 254., 252., 254., 255., 0., 0., 1.,
          0., 0., 0., 0., 0., 254., 254., 254., 255., 255., 252., 252.,
          2., 0., 2., 255., 255., 4., 0., 2., 254., 255., 255., 254.,
          254., 255., 255., 0., 0., 255., 253., 254., 254., 0., 255.,
          254., 255., 253., 252., 255., 255., 254., 0., 1., 254., 255.,
          0., 254., 255., 255., 254., 255., 254., 255., 253., 254., 255.,
          0., 0., 0., 1., 4., 1., 0., 253., 255., 255., 254., 254., 255.,
          252., 255., 1., 0., 2., 0., 0., 0., 1., 2., 253., 255., 254.,
          255., 252., 255., 254., 0., 0., 255., 255., 255., 0., 1., 0.,
          255., 255., 254., 254., 255., 255., 255., 2., 0., 255., 255.,
          252., 2., 0., 0., 255., 254., 253., 255., 253., 255., 255., 0.,
          0., 255., 252., 255., 4., 0., 0., 254., 255., 255., 251., 255.,
          250., 252., 2., 0., 2., 253., 1., 0., 0., 3., 251., 255., 254.,
          253., 255., 255., 255., 0., 0., 0., 2., 1., 0., 2., 0., 255.,
          255., 255., 255., 253., 255., 253., 255., 2., 0., 0., 0., 0.,
          1., 255., 253., 254., 253., 255., 254., 253., 255., 254., 254.,
          255., 255., 254., 255., 252., 255., 255., 255., 255., 255.,
          255., 253. ]
      - [ 255., 251., 255., 253., 255., 255., 252., 255., 255., 253.,
          255., 252., 255., 255., 252., 255., 255., 254., 0., 0., 0., 1.,
          0., 255., 253., 255., 255., 251., 254., 255., 253., 252., 0.,
          2., 0., 2., 0., 1., 0., 255., 251., 255., 254., 254., 255.,
          255., 4., 0., 1., 0., 1., 2., 0., 0., 255., 255., 252., 255.,
          253., 253., 255., 0., 0., 1., 255., 253., 255., 0., 0., 255.,
          254., 255., 255., 255., 255., 255., 1., 0., 0., 255., 255.,
          253., 255., 253., 254., 253., 255., 255., 255., 253., 254., 2.,
          2., 0., 2., 0., 0., 255., 255., 255., 255., 254., 254., 253.,
          255., 255., 0., 1., 0., 0., 0., 3., 0., 0., 254., 252., 255.,
          255., 255., 253., 255., 0., 0., 1., 255., 253., 1., 1., 0.,
          255., 255., 254., 254., 255., 255., 255., 3., 0., 1., 253.,
          255., 252., 0., 0., 255., 254., 253., 255., 253., 255., 254.,
          0., 2., 0., 253., 255., 255., 3., 0., 254., 255., 255., 251.,
          255., 250., 255., 2., 1., 0., 255., 255., 0., 0., 3., 251.,
          255., 254., 253., 255., 255., 253., 253., 0., 0., 2., 0., 0.,
          0., 0., 255., 255., 255., 255., 253., 255., 255., 255., 0., 0.,
          0., 0., 2., 2., 255., 253., 254., 253., 255., 254., 253., 255.,
          252., 255., 253., 255., 255., 251., 255., 255., 255., 255.,
          255., 255., 255., 253. ]
      - [ 254., 255., 254., 255., 254., 255., 255., 255., 255., 252.,
          255., 253., 255., 255., 255., 255., 251., 5., 0., 255., 255.,
          254., 255., 254., 255., 253., 255., 255., 253., 253., 255., 2.,
          0., 0., 3., 0., 1., 0., 1., 251., 255., 255., 255., 255., 255.,
          254., 3., 0., 0., 1., 0., 1., 2., 0., 255., 255., 253., 254.,
          254., 254., 255., 255., 255., 255., 255., 254., 0., 0., 1.,
          255., 250., 255., 255., 255., 255., 255., 254., 255., 254.,
          253., 255., 1., 0., 254., 254., 255., 255., 252., 255., 255.,
          255., 254., 255., 255., 254., 5., 0., 0., 255., 255., 255.,
          253., 255., 255., 250., 254., 255., 255., 255., 255., 0., 0.,
          1., 255., 255., 255., 253., 254., 255., 255., 255., 255., 255.,
          255., 0., 1., 1., 253., 255., 255., 255., 255., 255., 255.,
          255., 255., 251., 251., 255., 0., 2., 0., 255., 255., 255.,
          255., 255., 255., 255., 255., 255., 255., 255., 255., 0., 0.,
          3., 252., 255., 255., 255., 255., 255., 255., 255., 253., 254.,
          254., 255., 0., 5., 251., 255., 255., 255., 255., 255., 255.,
          255., 255., 255., 255., 255., 0., 0., 0., 255., 255., 255.,
          255., 255., 255., 255., 255., 255., 255., 254., 251., 1., 3.,
          0., 255., 251., 255., 255., 255., 255., 255., 255., 255., 255.,
          255., 255., 254., 252., 255., 254., 255., 255., 255., 255.,
          255., 255., 255., 255. ]
      - [ 255., 253., 255., 255., 255., 255., 255., 255., 255., 254.,
          255., 254., 255., 254., 254., 252., 255., 2., 0., 1., 254.,
          253., 255., 255., 255., 254., 254., 254., 255., 255., 255., 0.,
          1., 0., 0., 0., 0., 2., 0., 0., 254., 255., 255., 253., 255.,
          255., 255., 0., 4., 0., 0., 0., 0., 1., 0., 255., 252., 255.,
          255., 253., 254., 255., 255., 255., 255., 254., 1., 0., 0.,
          255., 255., 254., 254., 255., 255., 255., 255., 255., 250.,
          255., 255., 0., 0., 1., 252., 255., 254., 255., 250., 255.,
          254., 253., 255., 255., 255., 254., 0., 1., 255., 255., 255.,
          251., 255., 255., 251., 255., 255., 253., 255., 255., 0., 3.,
          0., 255., 253., 255., 255., 255., 250., 255., 255., 255., 255.,
          252., 255., 1., 0., 1., 255., 255., 255., 255., 255., 255.,
          255., 255., 252., 253., 255., 0., 0., 2., 255., 255., 255.,
          255., 255., 255., 255., 255., 255., 255., 250., 254., 1., 1.,
          0., 255., 255., 255., 255., 255., 255., 255., 255., 255., 255.,
          255., 255., 0., 1., 1., 255., 255., 255., 255., 255., 255.,
          255., 255., 254., 253., 255., 255., 1., 0., 255., 255., 255.,
          255., 255., 255., 255., 255., 255., 255., 255., 254., 255., 0.,
          2., 252., 255., 255., 255., 255., 255., 255., 255., 255., 254.,
          255., 254., 252., 255., 254., 255., 255., 255., 255., 255.,
          255., 255., 255., 255. ]
      - [ 255., 255., 255., 255., 251., 255., 255., 254., 255., 253.,
          255., 255., 255., 255., 253., 255., 0., 0., 1., 5., 0., 0., 0.,
          255., 255., 255., 255., 252., 254., 255., 253., 0., 0., 0., 0.,
          3., 0., 2., 1., 255., 250., 255., 255., 255., 255., 255., 2.,
          0., 0., 255., 0., 1., 0., 0., 255., 255., 251., 255., 255.,
          254., 255., 254., 255., 255., 252., 0., 5., 0., 255., 255.,
          251., 255., 254., 254., 255., 255., 254., 254., 255., 255., 0.,
          0., 0., 253., 255., 255., 253., 255., 255., 251., 253., 255.,
          255., 254., 255., 0., 1., 255., 255., 255., 255., 252., 255.,
          254., 255., 255., 255., 255., 252., 1., 1., 2., 254., 255.,
          255., 254., 254., 255., 255., 255., 255., 255., 254., 254., 0.,
          0., 0., 255., 255., 255., 255., 255., 255., 255., 255., 255.,
          251., 255., 255., 0., 3., 255., 254., 255., 255., 255., 255.,
          255., 255., 255., 255., 255., 252., 0., 0., 0., 255., 255.,
          255., 255., 255., 255., 255., 255., 255., 255., 251., 254., 2.,
          0., 2., 255., 253., 255., 255., 255., 255., 255., 255., 255.,
          255., 255., 255., 0., 0., 0., 254., 255., 255., 255., 255.,
          255., 255., 255., 255., 254., 253., 254., 1., 1., 255., 251.,
          255., 255., 255., 255., 255., 255., 255., 255., 255., 255.,
          253., 255., 254., 255., 255., 253., 255., 255., 255., 255.,
          255., 255., 255. ]
      - [ 255., 255., 252., 255., 254., 254., 255., 254., 255., 254.,
          255., 255., 255., 255., 255., 255., 0., 0., 1., 1., 1., 0., 0.,
          0., 1., 0., 1., 254., 255., 253., 254., 0., 0., 2., 0., 0., 2.,
          2., 1., 2., 2., 0., 250., 255., 253., 255., 2., 0., 0., 0.,
          255., 0., 0., 0., 0., 0., 255., 255., 253., 255., 254., 255.,
          254., 255., 255., 252., 255., 0., 1., 4., 254., 253., 253.,
          255., 255., 255., 255., 255., 253., 253., 255., 0., 2., 0.,
          252., 255., 255., 254., 255., 254., 255., 253., 255., 255.,
          255., 0., 0., 0., 255., 254., 255., 255., 255., 255., 254.,
          254., 255., 255., 255., 250., 3., 2., 0., 254., 255., 254.,
          255., 254., 255., 255., 255., 255., 255., 254., 0., 1., 0., 1.,
          255., 255., 255., 255., 255., 255., 255., 255., 254., 255.,
          255., 2., 0., 2., 250., 255., 255., 255., 255., 255., 255.,
          255., 255., 253., 255., 0., 0., 2., 0., 255., 255., 255., 255.,
          255., 255., 255., 255., 255., 254., 253., 4., 1., 0., 255.,
          254., 255., 255., 255., 255., 255., 255., 255., 253., 255.,
          254., 0., 3., 0., 254., 255., 255., 255., 255., 255., 255.,
          255., 255., 254., 255., 255., 0., 1., 0., 255., 255., 255.,
          255., 255., 255., 255., 255., 255., 255., 252., 255., 255.,
          254., 251., 255., 254., 255., 255., 255., 255., 255., 255.,
          255. ]
      - [ 252., 255., 255., 252., 255., 255., 255., 255., 255., 253.,
          255., 253., 253., 255., 253., 255., 0., 0., 4., 0., 0., 2., 0.,
          1., 0., 2., 0., 255., 253., 255., 254., 0., 2., 0., 0., 3., 0.,
          2., 0., 1., 0., 1., 253., 255., 255., 254., 255., 0., 0., 255.,
          252., 255., 0., 0., 0., 1., 252., 255., 253., 255., 255., 255.,
          255., 255., 255., 255., 254., 2., 0., 4., 254., 255., 255.,
          254., 254., 255., 255., 253., 255., 255., 251., 0., 0., 0.,
          252., 255., 253., 251., 255., 254., 253., 255., 251., 255.,
          255., 255., 2., 1., 0., 255., 255., 255., 255., 255., 254.,
          255., 255., 255., 255., 254., 0., 0., 0., 255., 254., 254.,
          255., 255., 254., 255., 253., 255., 255., 255., 252., 4., 0.,
          0., 255., 255., 255., 255., 255., 255., 255., 255., 253., 255.,
          254., 4., 0., 0., 255., 255., 255., 255., 255., 255., 255.,
          255., 253., 253., 255., 255., 0., 0., 3., 254., 255., 255.,
          255., 255., 255., 255., 255., 255., 254., 255., 0., 1., 1., 0.,
          255., 255., 255., 255., 255., 255., 255., 255., 253., 255.,
          254., 0., 3., 0., 254., 255., 255., 255., 255., 255., 255.,
          255., 255., 255., 253., 255., 1., 1., 0., 254., 255., 255.,
          255., 255., 255., 255., 255., 255., 255., 251., 255., 254.,
          254., 255., 255., 254., 255., 255., 255., 255., 255., 255.,
          255. ]
      - [ 255., 255., 255., 254., 255., 251., 255., 255., 255., 253.,
          255., 254., 255., 255., 254., 255., 0., 0., 0., 1., 5., 0., 0.,
          0., 255., 255., 252., 255., 255., 255., 254., 2., 0., 0., 0.,
          0., 0., 2., 2., 253., 255., 255., 252., 255., 254., 255., 0.,
          0., 0., 4., 0., 2., 0., 0., 254., 255., 253., 255., 255., 253.,
          255., 253., 255., 255., 251., 255., 0., 0., 255., 252., 255.,
          255., 255., 255., 255., 255., 250., 255., 255., 255., 4., 0.,
          255., 253., 255., 252., 254., 254., 253., 254., 255., 255.,
          254., 251., 255., 0., 0., 255., 255., 254., 255., 253., 255.,
          255., 255., 255., 253., 255., 255., 2., 0., 3., 254., 252.,
          255., 255., 254., 255., 255., 251., 255., 255., 255., 255., 1.,
          0., 0., 255., 255., 255., 255., 255., 255., 255., 255., 255.,
          255., 253., 0., 0., 1., 252., 255., 255., 255., 255., 255.,
          255., 255., 255., 249., 255., 255., 0., 3., 0., 255., 255.,
          255., 255., 255., 255., 255., 255., 255., 255., 251., 253., 1.,
          0., 252., 254., 254., 255., 255., 255., 255., 255., 255., 255.,
          255., 254., 255., 0., 0., 255., 255., 253., 255., 255., 255.,
          255., 255., 255., 255., 253., 255., 252., 3., 0., 255., 255.,
          254., 255., 255., 255., 255., 255., 255., 255., 255., 255.,
          255., 252., 255., 255., 255., 255., 255., 255., 255., 255.,
          255., 255., 255. ]
      - [ 255., 255., 255., 255., 255., 255., 254., 255., 255., 253.,
          255., 254., 255., 255., 254., 255., 2., 0., 2., 0., 0., 1., 1.,
          0., 255., 255., 252., 255., 255., 255., 254., 1., 0., 0., 0.,
          2., 0., 0., 2., 253., 255., 255., 252., 255., 254., 253., 255.,
          0., 255., 255., 253., 1., 0., 0., 254., 255., 253., 255., 255.,
          253., 255., 255., 255., 251., 255., 255., 1., 0., 255., 252.,
          255., 255., 255., 255., 255., 254., 254., 253., 255., 250., 1.,
          1., 0., 253., 255., 252., 254., 254., 253., 254., 255., 255.,
          255., 255., 2., 0., 0., 255., 255., 254., 255., 253., 255.,
          255., 255., 255., 255., 254., 252., 1., 2., 254., 255., 252.,
          255., 255., 254., 255., 255., 251., 255., 255., 255., 255., 0.,
          0., 255., 255., 255., 255., 255., 255., 255., 255., 255., 255.,
          252., 255., 254., 2., 0., 255., 254., 255., 255., 255., 255.,
          255., 255., 255., 255., 255., 255., 0., 0., 3., 252., 255.,
          255., 255., 255., 255., 255., 255., 255., 253., 255., 255., 0.,
          1., 0., 251., 255., 255., 255., 255., 255., 255., 255., 255.,
          255., 253., 255., 1., 1., 1., 255., 254., 255., 255., 255.,
          255., 255., 255., 255., 254., 254., 255., 0., 0., 0., 253.,
          255., 255., 255., 255., 255., 255., 255., 255., 255., 255.,
          252., 255., 255., 255., 255., 252., 255., 255., 255., 255.,
          255., 255., 255. ]
      - [ 254., 255., 250., 254., 255., 255., 255., 255., 255., 253.,
          255., 254., 255., 255., 254., 255., 0., 3., 3., 1., 0., 0., 0.,
          0., 255., 255., 252., 255., 255., 255., 254., 1., 1., 0., 2.,
          1., 0., 3., 2., 253., 255., 255., 252., 255., 254., 255., 1.,
          0., 0., 0., 0., 0., 1., 0., 254., 255., 253., 255., 255., 253.,
          255., 255., 255., 255., 254., 255., 1., 0., 255., 252., 255.,
          255., 255., 255., 255., 253., 255., 254., 253., 255., 0., 2.,
          2., 253., 255., 252., 254., 254., 253., 254., 255., 252., 255.,
          255., 2., 1., 0., 255., 255., 254., 255., 253., 255., 255.,
          255., 254., 255., 253., 255., 0., 0., 255., 254., 252., 255.,
          255., 254., 255., 255., 251., 253., 255., 255., 251., 2., 0.,
          254., 255., 255., 255., 255., 255., 255., 255., 255., 255.,
          253., 252., 255., 1., 1., 255., 254., 255., 255., 255., 255.,
          255., 255., 255., 254., 255., 255., 0., 3., 0., 253., 255.,
          255., 255., 255., 255., 255., 255., 255., 255., 254., 255., 0.,
          0., 255., 255., 255., 255., 255., 255., 255., 255., 255., 255.,
          251., 255., 0., 1., 2., 253., 255., 253., 255., 255., 255.,
          255., 255., 255., 255., 255., 252., 2., 0., 2., 255., 255.,
          255., 255., 255., 255., 255., 255., 255., 255., 255., 253.,
          255., 255., 254., 255., 255., 252., 255., 255., 255., 255.,
          255., 255., 255. ]
      - [ 255., 252., 255., 253., 255., 254., 255., 254., 255., 255.,
          255., 255., 254., 255., 255., 253., 255., 253., 0., 0., 0., 0.,
          255., 254., 255., 255., 253., 255., 255., 255., 255., 254., 0.,
          0., 5., 0., 0., 0., 255., 251., 255., 255., 254., 255., 250.,
          251., 2., 0., 0., 252., 0., 0., 3., 255., 255., 255., 255.,
          254., 254., 255., 255., 0., 0., 255., 255., 254., 0., 0., 2.,
          251., 255., 254., 255., 255., 255., 255., 0., 2., 255., 255.,
          254., 3., 0., 254., 255., 254., 255., 254., 252., 252., 255.,
          0., 0., 0., 0., 1., 0., 0., 255., 252., 255., 255., 255., 255.,
          255., 254., 0., 1., 1., 0., 0., 1., 0., 254., 255., 255., 252.,
          255., 255., 255., 255., 0., 0., 1., 0., 1., 1., 0., 2., 252.,
          255., 255., 254., 255., 255., 253., 6., 1., 255., 254., 255.,
          0., 1., 0., 255., 255., 254., 255., 255., 255., 255., 0., 1.,
          252., 255., 255., 0., 3., 0., 255., 255., 254., 255., 254.,
          254., 255., 1., 0., 3., 255., 2., 0., 0., 0., 254., 254., 255.,
          255., 255., 253., 255., 0., 0., 0., 0., 1., 0., 0., 255., 255.,
          255., 254., 255., 253., 255., 255., 255., 254., 0., 1., 0., 0.,
          255., 254., 254., 255., 255., 254., 255., 255., 253., 255.,
          255., 255., 255., 254., 255., 255., 255., 254., 254., 255.,
          255., 255., 254. ]
      - [ 254., 255., 253., 255., 255., 255., 255., 254., 255., 255.,
          255., 255., 255., 255., 255., 255., 255., 4., 0., 0., 0., 0.,
          255., 255., 255., 255., 255., 255., 255., 255., 255., 0., 2.,
          0., 2., 0., 0., 0., 255., 255., 255., 255., 255., 255., 255.,
          255., 0., 1., 255., 255., 254., 0., 1., 255., 255., 255., 255.,
          255., 255., 255., 253., 5., 0., 253., 255., 253., 0., 2., 255.,
          255., 255., 255., 255., 255., 255., 255., 0., 4., 252., 255.,
          255., 0., 0., 255., 255., 255., 255., 255., 255., 255., 252.,
          255., 0., 3., 0., 0., 0., 255., 255., 255., 255., 255., 255.,
          255., 255., 255., 254., 0., 0., 0., 1., 2., 254., 255., 255.,
          255., 255., 255., 255., 255., 254., 2., 0., 255., 254., 255.,
          1., 1., 255., 255., 255., 255., 255., 255., 255., 255., 0., 4.,
          253., 255., 255., 0., 1., 255., 255., 255., 255., 255., 255.,
          255., 251., 2., 2., 255., 252., 253., 5., 0., 255., 255., 255.,
          255., 255., 255., 255., 255., 0., 0., 251., 255., 255., 0., 0.,
          255., 255., 255., 255., 255., 255., 255., 253., 1., 1., 2., 1.,
          2., 0., 1., 255., 255., 255., 255., 255., 255., 255., 255.,
          255., 0., 0., 0., 0., 0., 255., 255., 255., 255., 255., 255.,
          255., 255., 255., 251., 255., 255., 254., 255., 255., 254.,
          255., 255., 255., 255., 255., 255., 255. ]
      - [ 254., 255., 254., 254., 255., 255., 252., 255., 254., 255.,
          255., 253., 255., 254., 255., 255., 254., 255., 1., 1., 1., 0.,
          255., 254., 253., 254., 255., 255., 254., 255., 255., 255., 1.,
          0., 0., 0., 4., 0., 255., 255., 255., 253., 251., 255., 253.,
          255., 253., 3., 0., 0., 3., 0., 0., 0., 253., 253., 255., 255.,
          254., 254., 254., 0., 0., 1., 255., 253., 2., 3., 0., 255.,
          255., 255., 251., 255., 255., 255., 5., 0., 0., 255., 253.,
          254., 0., 0., 255., 254., 251., 255., 255., 255., 255., 251.,
          2., 0., 0., 2., 2., 0., 0., 255., 253., 255., 255., 250., 255.,
          255., 255., 0., 0., 2., 0., 0., 2., 255., 254., 254., 255.,
          253., 255., 255., 255., 1., 0., 0., 2., 0., 1., 0., 0., 255.,
          255., 254., 254., 255., 255., 255., 1., 1., 0., 255., 255.,
          253., 0., 0., 255., 254., 253., 255., 253., 255., 255., 0., 4.,
          0., 254., 255., 252., 2., 0., 254., 255., 255., 251., 255.,
          250., 255., 0., 0., 0., 0., 255., 0., 0., 3., 251., 255., 254.,
          253., 255., 255., 255., 255., 1., 0., 0., 0., 1., 0., 0., 255.,
          255., 255., 255., 253., 255., 255., 255., 254., 0., 3., 0., 0.,
          4., 255., 253., 254., 253., 255., 254., 253., 255., 255., 254.,
          255., 251., 255., 254., 254., 255., 255., 255., 255., 255.,
          255., 253. ]
      - [ 254., 253., 255., 254., 253., 255., 255., 254., 255., 255.,
          255., 253., 255., 254., 254., 255., 254., 2., 0., 4., 0., 0.,
          2., 255., 253., 253., 255., 255., 255., 253., 254., 2., 0., 0.,
          0., 0., 0., 0., 1., 254., 255., 253., 253., 255., 255., 255.,
          0., 0., 3., 253., 255., 255., 0., 0., 2., 255., 255., 254.,
          255., 255., 254., 0., 7., 0., 255., 255., 255., 0., 0., 0.,
          253., 255., 254., 252., 255., 255., 3., 0., 0., 255., 255.,
          253., 4., 1., 2., 255., 253., 255., 255., 253., 255., 254., 1.,
          3., 1., 0., 0., 0., 0., 254., 255., 253., 255., 253., 255.,
          255., 255., 0., 0., 0., 0., 0., 2., 1., 254., 255., 254., 255.,
          254., 255., 255., 1., 0., 1., 253., 254., 255., 0., 0., 0.,
          255., 254., 255., 255., 253., 255., 0., 3., 253., 255., 254.,
          255., 0., 0., 0., 252., 255., 253., 255., 255., 254., 0., 0.,
          255., 252., 254., 255., 255., 1., 2., 255., 254., 255., 255.,
          254., 255., 1., 1., 0., 255., 255., 255., 0., 0., 0., 255.,
          255., 255., 251., 255., 255., 0., 1., 2., 2., 0., 0., 2., 1.,
          0., 253., 254., 254., 255., 255., 253., 255., 0., 0., 0., 0.,
          4., 0., 0., 255., 255., 255., 255., 254., 255., 255., 250.,
          255., 255., 254., 255., 255., 254., 255., 253., 255., 252.,
          253., 255., 255. ]
      - [ 252., 255., 255., 252., 255., 255., 254., 255., 255., 254.,
          253., 255., 255., 254., 255., 255., 255., 251., 2., 0., 0., 0.,
          255., 255., 255., 255., 254., 253., 255., 255., 254., 253., 1.,
          0., 0., 0., 3., 0., 0., 255., 252., 254., 255., 254., 254.,
          255., 255., 0., 1., 1., 255., 0., 0., 0., 255., 253., 254.,
          254., 255., 252., 253., 255., 0., 0., 253., 255., 255., 2., 1.,
          253., 255., 255., 255., 253., 255., 255., 253., 0., 1., 255.,
          254., 253., 0., 0., 255., 253., 255., 253., 255., 251., 254.,
          255., 0., 2., 0., 0., 1., 0., 0., 255., 255., 255., 255., 254.,
          255., 255., 254., 2., 0., 1., 0., 0., 1., 0., 255., 255., 253.,
          255., 255., 253., 255., 1., 0., 0., 0., 0., 3., 0., 0., 255.,
          254., 254., 255., 255., 255., 254., 0., 2., 3., 254., 253.,
          255., 1., 1., 1., 255., 253., 255., 255., 255., 255., 0., 1.,
          0., 255., 255., 253., 2., 0., 1., 251., 255., 251., 255., 252.,
          251., 255., 0., 0., 1., 255., 0., 0., 0., 251., 255., 255.,
          255., 254., 255., 255., 255., 1., 0., 0., 2., 3., 0., 1., 255.,
          254., 253., 253., 255., 255., 252., 255., 251., 255., 5., 0.,
          0., 255., 255., 255., 255., 255., 255., 253., 252., 255., 255.,
          255., 254., 255., 254., 255., 253., 254., 255., 253., 255.,
          255., 253., 255. ]
      - [ 253., 255., 252., 255., 255., 255., 251., 255., 255., 253.,
          255., 253., 255., 255., 251., 255., 255., 255., 253., 0., 0.,
          1., 255., 254., 255., 253., 255., 254., 250., 255., 255., 254.,
          0., 2., 1., 0., 0., 0., 253., 255., 253., 255., 252., 255.,
          255., 255., 255., 1., 1., 1., 254., 1., 0., 0., 255., 253.,
          254., 255., 255., 255., 252., 255., 0., 1., 254., 254., 2., 0.,
          0., 255., 255., 255., 255., 255., 254., 255., 255., 1., 2.,
          254., 255., 0., 0., 0., 255., 251., 254., 255., 253., 253.,
          255., 252., 2., 0., 0., 3., 0., 2., 255., 252., 255., 255.,
